{"learner":{"attributes":{"best_iteration":"60","best_score":"0.6766191708579032","scikit_learn":"{\"_estimator_type\": \"classifier\"}"},"feature_names":["trk_distance_v","trk_score_v","trk_range_muon_mom_v","trk_llr_pid_score_v","trk_pid_chipr_v","trk_energy_proton_v","range_mcs_difference","pfp_num_daughter"],"feature_types":["float","float","float","float","float","float","float","float"],"gradient_booster":{"model":{"gbtree_model_param":{"num_parallel_tree":"1","num_trees":"284"},"iteration_indptr":[0,4,8,12,16,20,24,28,32,36,40,44,48,52,56,60,64,68,72,76,80,84,88,92,96,100,104,108,112,116,120,124,128,132,136,140,144,148,152,156,160,164,168,172,176,180,184,188,192,196,200,204,208,212,216,220,224,228,232,236,240,244,248,252,256,260,264,268,272,276,280,284],"tree_info":[0,1,2,3,0,1,2,3,0,1,2,3,0,1,2,3,0,1,2,3,0,1,2,3,0,1,2,3,0,1,2,3,0,1,2,3,0,1,2,3,0,1,2,3,0,1,2,3,0,1,2,3,0,1,2,3,0,1,2,3,0,1,2,3,0,1,2,3,0,1,2,3,0,1,2,3,0,1,2,3,0,1,2,3,0,1,2,3,0,1,2,3,0,1,2,3,0,1,2,3,0,1,2,3,0,1,2,3,0,1,2,3,0,1,2,3,0,1,2,3,0,1,2,3,0,1,2,3,0,1,2,3,0,1,2,3,0,1,2,3,0,1,2,3,0,1,2,3,0,1,2,3,0,1,2,3,0,1,2,3,0,1,2,3,0,1,2,3,0,1,2,3,0,1,2,3,0,1,2,3,0,1,2,3,0,1,2,3,0,1,2,3,0,1,2,3,0,1,2,3,0,1,2,3,0,1,2,3,0,1,2,3,0,1,2,3,0,1,2,3,0,1,2,3,0,1,2,3,0,1,2,3,0,1,2,3,0,1,2,3,0,1,2,3,0,1,2,3,0,1,2,3,0,1,2,3,0,1,2,3,0,1,2,3,0,1,2,3,0,1,2,3,0,1,2,3,0,1,2,3,0,1,2,3],"trees":[{"base_weights":[-2.5916165E-1,-2.9547635E-1,6.342859E-1,-3.9001495E-1,-9.405184E-3,1.2550781E0,2.081351E-1,-1.634459E-1,-4.2753914E-1,4.5269006E-1,-1.7261046E-1,1.4786317E0,1.0054634E0,3.6634666E-1,-1.5145205E-1,-3.5076627E-1,7.94442E-2,-4.067736E-1,-6.221073E-1,-1.3691871E-1,6.01886E-1,-9.8319724E-2,-4.513835E-1,2.9787233E-1,1.5146188E0,1.1284916E0,8.724718E-1,6.485858E-1,2.726164E-1,6.070826E-3,-4.4270995E-1,-3.8840073E-1,-1.22649536E-1,-4.3351397E-2,3.2491276E-1,-4.1419217E-1,-9.073884E-2,-5.5364424E-1,-6.5039605E-1,-1.963126E-1,1.4513275E-1,8.017458E-1,3.1627685E-2,-6.286818E-2,-5.2503085E-1,-2.045929E-1,-4.882435E-1,3.773585E-2,7.2E-1,1.4326857E0,1.7044652E0,1.2304169E0,1.0468805E0,1.0761671E0,7.6243097E-1,9.4214875E-1,5.040276E-1,8.3692305E-2,4.075746E-1,3.8297874E-1,-3.547826E-2,1.3793103E-2,-4.868196E-1,-1.2574382E-1,-6.9213144E-2,-6.702043E-2,3.7929907E-2,-3.0120745E-2,7.352153E-2,1.4041455E-1,-1.6413374E-2,-1.0029117E-1,-1.3526791E-1,2.7423406E-2,-7.781784E-2,2.0727274E-1,-1.6786319E-1,-1.1538462E-1,-1.9570412E-1,-7.384018E-2,3.223331E-3,1.6622692E-1,-1.4457832E-3,1.6807109E-1,2.735075E-1,-1.894737E-3,1.2967339E-1,2.441831E-2,-4.263632E-2,-1.0484211E-1,-1.7745464E-1,-3.380821E-2,-1.4569192E-1,-1.5496908E-1,-8.902938E-2,-1.6363637E-1,5.454546E-2,3.529412E-2,3.7846157E-1,2.9242718E-1,4.3962651E-1,3.9748654E-1,5.344774E-1,3.7634817E-1,1.3246754E-1,2.6615918E-1,3.617143E-1,3.341969E-1,1.0434783E-1,1.8170238E-1,2.8718704E-1,3.6585367E-1,2.0996751E-1,1.0426639E-1,2.0819463E-1,6.7381404E-2,-3.1760894E-2,1.8602389E-1,1.01024896E-1,-7.376354E-2,2.6244842E-2,-1.9636363E-2,2.8695655E-1,1.4716981E-1,-1.5104312E-1],"categories":[],"categories_nodes":[],"categories_segments":[],"categories_sizes":[],"default_left":[0,0,0,0,0,0,0,0,0,0,0,0,0,0,0,0,0,0,0,0,0,0,0,0,0,0,0,0,0,0,0,0,0,0,0,0,0,0,0,0,0,0,0,0,0,0,0,0,0,0,0,0,0,0,0,0,0,0,0,0,0,0,0,0,0,0,0,0,0,0,0,0,0,0,0,0,0,0,0,0,0,0,0,0,0,0,0,0,0,0,0,0,0,0,0,0,0,0,0,0,0,0,0,0,0,0,0,0,0,0,0,0,0,0,0,0,0,0,0,0,0,0,0,0,0],"id":0,"left_children":[1,3,5,7,9,11,13,15,17,19,21,23,25,27,29,31,33,35,37,39,41,43,45,47,49,51,53,55,57,59,61,63,65,67,69,71,73,75,77,79,81,83,85,87,89,91,93,95,97,99,101,103,105,107,109,111,113,115,117,-1,119,121,123,-1,-1,-1,-1,-1,-1,-1,-1,-1,-1,-1,-1,-1,-1,-1,-1,-1,-1,-1,-1,-1,-1,-1,-1,-1,-1,-1,-1,-1,-1,-1,-1,-1,-1,-1,-1,-1,-1,-1,-1,-1,-1,-1,-1,-1,-1,-1,-1,-1,-1,-1,-1,-1,-1,-1,-1,-1,-1,-1,-1,-1,-1],"loss_changes":[5.2247803E3,4.184881E3,1.663699E3,9.887246E2,2.898801E3,1.4136719E2,2.1230101E2,7.51972E2,4.0288086E2,8.825913E2,5.882304E2,5.6843994E1,1.885608E1,6.836975E1,5.2334316E1,8.005957E1,2.169456E2,2.1134277E2,1.8271729E1,3.398089E1,9.124895E2,3.3926892E2,5.42677E1,4.4888E0,1.790747E1,3.9232788E0,1.2339783E1,2.6907562E1,4.9605072E1,3.917525E1,8.068741E0,3.8733276E1,3.3226505E1,7.8975E1,1.3042943E2,2.581289E2,6.3587967E1,2.1088745E1,3.276123E0,1.7277824E1,2.165768E1,1.5691138E2,3.1603287E1,2.3679358E2,1.987323E1,2.004905E1,2.8040771E1,2.3259006E0,4.9484158E0,1.236499E1,9.029297E0,4.6288757E0,7.9246826E0,5.2184906E0,1.1168716E1,1.3374649E1,1.2673332E1,2.172697E1,1.6879318E1,0E0,1.8616316E1,2.770811E0,6.1915054E0,0E0,0E0,0E0,0E0,0E0,0E0,0E0,0E0,0E0,0E0,0E0,0E0,0E0,0E0,0E0,0E0,0E0,0E0,0E0,0E0,0E0,0E0,0E0,0E0,0E0,0E0,0E0,0E0,0E0,0E0,0E0,0E0,0E0,0E0,0E0,0E0,0E0,0E0,0E0,0E0,0E0,0E0,0E0,0E0,0E0,0E0,0E0,0E0,0E0,0E0,0E0,0E0,0E0,0E0,0E0,0E0,0E0,0E0,0E0,0E0,0E0,0E0],"parents":[2147483647,0,0,1,1,2,2,3,3,4,4,5,5,6,6,7,7,8,8,9,9,10,10,11,11,12,12,13,13,14,14,15,15,16,16,17,17,18,18,19,19,20,20,21,21,22,22,23,23,24,24,25,25,26,26,27,27,28,28,29,29,30,30,31,31,32,32,33,33,34,34,35,35,36,36,37,37,38,38,39,39,40,40,41,41,42,42,43,43,44,44,45,45,46,46,47,47,48,48,49,49,50,50,51,51,52,52,53,53,54,54,55,55,56,56,57,57,58,58,60,60,61,61,62,62],"right_children":[2,4,6,8,10,12,14,16,18,20,22,24,26,28,30,32,34,36,38,40,42,44,46,48,50,52,54,56,58,60,62,64,66,68,70,72,74,76,78,80,82,84,86,88,90,92,94,96,98,100,102,104,106,108,110,112,114,116,118,-1,120,122,124,-1,-1,-1,-1,-1,-1,-1,-1,-1,-1,-1,-1,-1,-1,-1,-1,-1,-1,-1,-1,-1,-1,-1,-1,-1,-1,-1,-1,-1,-1,-1,-1,-1,-1,-1,-1,-1,-1,-1,-1,-1,-1,-1,-1,-1,-1,-1,-1,-1,-1,-1,-1,-1,-1,-1,-1,-1,-1,-1,-1,-1,-1],"split_conditions":[1.8486496E1,1.5126613E2,1.5951633E-1,8.058851E-1,8.275413E-1,1.1355011E-1,9.293751E-1,5.351517E-2,9.591467E-1,7.2947614E-2,1E0,7.611721E-2,1.344118E-1,-3.173868E-1,9.659082E-1,3.292619E0,2.0769336E0,6.68073E0,9.7068787E-1,3.0898404E0,1.471455E-1,9.7068787E-1,4.9225518E-1,7.743572E1,1.8190881E2,-3.3002883E-1,1.4798943E1,-7.2946274E-1,4.8303387E1,1.7196196E0,-2.4590355E-1,5.221686E1,-7.562684E-3,1.1960533E2,1.1980582E-1,3.3901095E-1,-4.9833575E-1,4.2404255E-1,-3.3258927E-1,1.0820877E-1,6.490978E-2,2.1797323E-1,6.68073E0,4.322539E-1,9.7662544E-1,9.58608E-1,2.6203552E2,-1.1787932E-1,6.195352E1,2.3249588E1,6.195352E1,9.9165374E-1,1.6911116E2,9.9165374E-1,1.6608356E2,1.9282115E-1,4.8303387E1,9.689072E-1,1.9776055E-1,3.8297874E-1,1.3450436E2,2.3184312E2,9.9165374E-1,-1.2574382E-1,-6.9213144E-2,-6.702043E-2,3.7929907E-2,-3.0120745E-2,7.352153E-2,1.4041455E-1,-1.6413374E-2,-1.0029117E-1,-1.3526791E-1,2.7423406E-2,-7.781784E-2,2.0727274E-1,-1.6786319E-1,-1.1538462E-1,-1.9570412E-1,-7.384018E-2,3.223331E-3,1.6622692E-1,-1.4457832E-3,1.6807109E-1,2.735075E-1,-1.894737E-3,1.2967339E-1,2.441831E-2,-4.263632E-2,-1.0484211E-1,-1.7745464E-1,-3.380821E-2,-1.4569192E-1,-1.5496908E-1,-8.902938E-2,-1.6363637E-1,5.454546E-2,3.529412E-2,3.7846157E-1,2.9242718E-1,4.3962651E-1,3.9748654E-1,5.344774E-1,3.7634817E-1,1.3246754E-1,2.6615918E-1,3.617143E-1,3.341969E-1,1.0434783E-1,1.8170238E-1,2.8718704E-1,3.6585367E-1,2.0996751E-1,1.0426639E-1,2.0819463E-1,6.7381404E-2,-3.1760894E-2,1.8602389E-1,1.01024896E-1,-7.376354E-2,2.6244842E-2,-1.9636363E-2,2.8695655E-1,1.4716981E-1,-1.5104312E-1],"split_indices":[0,4,2,1,1,2,3,3,3,3,7,2,2,6,3,0,0,0,3,0,2,3,3,4,4,3,4,3,0,4,6,4,3,4,2,0,6,4,6,2,2,3,0,0,3,1,4,3,0,0,0,1,4,1,4,2,0,1,2,0,4,0,1,0,0,0,0,0,0,0,0,0,0,0,0,0,0,0,0,0,0,0,0,0,0,0,0,0,0,0,0,0,0,0,0,0,0,0,0,0,0,0,0,0,0,0,0,0,0,0,0,0,0,0,0,0,0,0,0,0,0,0,0,0,0],"split_type":[0,0,0,0,0,0,0,0,0,0,0,0,0,0,0,0,0,0,0,0,0,0,0,0,0,0,0,0,0,0,0,0,0,0,0,0,0,0,0,0,0,0,0,0,0,0,0,0,0,0,0,0,0,0,0,0,0,0,0,0,0,0,0,0,0,0,0,0,0,0,0,0,0,0,0,0,0,0,0,0,0,0,0,0,0,0,0,0,0,0,0,0,0,0,0,0,0,0,0,0,0,0,0,0,0,0,0,0,0,0,0,0,0,0,0,0,0,0,0,0,0,0,0,0,0],"sum_hessian":[1.6102688E5,1.5473812E5,6.28875E3,1.16302875E5,3.843525E4,2.559E3,3.72975E3,1.6525875E4,9.9777E4,1.003125E4,2.8404E4,1.347375E3,1.211625E3,2.590125E3,1.139625E3,9.33E3,7.195875E3,9.0157875E4,9.619125E3,2.02575E3,8.0055E3,2.2428375E4,5.975625E3,4.0125E1,1.30725E3,6.255E2,5.86125E2,6.4425E2,1.945875E3,7.4025E2,3.99375E2,8.008125E3,1.321875E3,4.797E3,2.398875E3,8.808975E4,2.068125E3,2.8185E3,6.800625E3,1.673625E3,3.52125E2,5.927625E3,2.077875E3,2.0709E4,1.719375E3,7.77375E2,5.19825E3,2.55E1,1.4625E1,9.19125E2,3.88125E2,2.71875E2,3.53625E2,2.025E2,3.83625E2,2.1075E2,4.335E2,8.115E2,1.134375E3,2.25E1,7.1775E2,3.525E1,3.64125E2,6.700125E3,1.308E3,9.4125E2,3.80625E2,4.005375E3,7.91625E2,1.741875E3,6.57E2,2.773275E4,6.0357E4,9.945E2,1.073625E3,1.275E1,2.80575E3,5.1E1,6.749625E3,1.348875E3,3.2475E2,9.375E1,2.58375E2,1.85625E3,4.071375E3,1.899E3,1.78875E2,7.342875E3,1.3366125E4,4.74E2,1.245375E3,5.86875E2,1.905E2,4.527E3,6.7125E2,4.5E0,2.1E1,7.5E0,7.125E0,6.3375E1,8.5575E2,6.8625E1,3.195E2,2.6325E2,8.625E0,1.79625E2,1.74E2,1.92E2,1.05E1,2.14875E2,1.6875E2,9.6375E1,1.14375E2,2.3925E2,1.9425E2,4.65375E2,3.46125E2,2.81625E2,8.5275E2,2.64375E2,4.53375E2,3.3375E1,1.875E0,5.625E0,3.585E2],"tree_param":{"num_deleted":"0","num_feature":"8","num_nodes":"125","size_leaf_vector":"1"}},{"base_weights":[9.388126E-3,-3.8514817E-1,1.1444376E0,-5.8845305E-1,1.5832053E-2,1.4934276E-1,1.3866003E0,-6.404906E-1,-4.679018E-1,-1.7742068E-1,1.0060744E-1,-6.512301E-2,4.6416512E-1,1.118645E0,1.7988923E0,-6.5068936E-1,-5.3660506E-1,-5.2534705E-1,-3.461363E-1,1.022033E-1,-4.1779327E-1,-2.9086214E-2,5.161339E-1,-3.72016E-1,2.2253366E-1,-4.191045E-1,5.9257007E-1,2.2565255E-1,1.2047215E0,1.5918566E0,1.9316101E0,-6.0676557E-1,-6.542049E-1,-6.0602397E-1,-4.3876994E-1,-4.092726E-1,-5.973585E-1,-1.5266177E-1,-4.0206814E-1,4.114953E-1,1.5198457E-3,-5.00684E-1,-2.0373261E-1,1.2888475E-1,-1.1284833E-1,3.6473367E-1,7.1929514E-1,6.313646E-1,-3.9885977E-1,4.1299728E-1,-1.4585473E-1,5.9227467E-1,-4.9344E-1,7.414087E-1,2.2235668E-1,8.822339E-2,5.35649E-1,8.3796835E-1,1.3376989E0,1.730485E0,1.1686475E0,7.826087E-1,1.935505E0,-1.8362024E-1,-1.5060404E-1,-1.9632982E-1,-8.709677E-2,-1.8273333E-1,-3.483871E-2,-1.0474446E-1,-1.4483508E-1,-1.4126867E-1,-9.5037885E-2,-1.8500847E-1,-1.403351E-1,-8.817689E-3,-9.061697E-2,-1.3334307E-1,-8.782466E-2,-4.066878E-3,1.5493841E-1,-3.9423946E-2,3.368331E-2,-1.6938499E-1,-8.337259E-2,-1.3664189E-1,-1.2321429E-2,-3.0992167E-2,6.116962E-2,-6.72996E-2,-1.4461011E-2,1.3689522E-1,-4.762709E-3,2.3820932E-1,1.9520547E-2,2.2048998E-1,-1.20000005E-1,-1.4946719E-1,-4.664151E-2,7.414685E-2,1.9441588E-1,1.3872833E-2,-8.300863E-2,2.2378379E-1,-0E0,-1.9138174E-1,-5.4108217E-2,2.0934917E-1,4.3776825E-1,1.644025E-2,1.6239017E-1,-7.448535E-2,7.484296E-2,8.582575E-3,2.4244554E-1,2.873534E-1,1.11480705E-1,4.6230906E-1,3.4468994E-1,1.6631237E-1,5.3349906E-1,3.1593812E-1,3.9853808E-1,5.3097345E-3,4.2720002E-1,5.908405E-1,5.490209E-1],"categories":[],"categories_nodes":[],"categories_segments":[],"categories_sizes":[],"default_left":[0,0,0,0,0,0,0,0,0,0,0,0,0,0,0,0,0,0,0,0,0,0,0,0,0,0,0,0,0,0,0,0,0,0,0,0,0,0,0,0,0,0,0,0,0,0,0,0,0,0,0,0,0,0,0,0,0,0,0,0,0,0,0,0,0,0,0,0,0,0,0,0,0,0,0,0,0,0,0,0,0,0,0,0,0,0,0,0,0,0,0,0,0,0,0,0,0,0,0,0,0,0,0,0,0,0,0,0,0,0,0,0,0,0,0,0,0,0,0,0,0,0,0,0,0,0,0],"id":1,"left_children":[1,3,5,7,9,11,13,15,17,19,21,23,25,27,29,31,33,35,37,39,41,43,45,47,49,51,53,55,57,59,61,63,65,67,69,71,73,75,77,79,81,83,85,87,89,91,93,95,97,99,101,103,105,107,109,111,113,115,117,119,121,123,125,-1,-1,-1,-1,-1,-1,-1,-1,-1,-1,-1,-1,-1,-1,-1,-1,-1,-1,-1,-1,-1,-1,-1,-1,-1,-1,-1,-1,-1,-1,-1,-1,-1,-1,-1,-1,-1,-1,-1,-1,-1,-1,-1,-1,-1,-1,-1,-1,-1,-1,-1,-1,-1,-1,-1,-1,-1,-1,-1,-1,-1,-1,-1,-1],"loss_changes":[7.211165E4,9.741275E3,1.0008746E4,4.9710938E2,6.5867065E2,5.489988E2,3.6885E3,5.8328125E1,1.6707178E2,8.240185E2,1.5060165E3,4.270923E2,3.739121E2,1.5562207E3,3.5844922E2,7.388672E0,3.3397583E1,1.3553857E2,8.291162E1,1.7649254E2,1.1687073E2,2.818392E2,2.0420593E2,6.329538E1,1.7528749E2,3.177446E1,1.5835687E2,7.584919E1,8.996133E2,2.9984277E2,3.4345703E1,1.7757568E0,3.6816406E0,4.3100586E0,7.960724E0,3.5312744E1,2.482373E1,3.1687046E1,2.7442505E1,6.2106903E1,6.2982933E1,6.7516846E1,7.540308E1,1.2857416E2,1.0030232E2,1.3284961E2,1.3868567E2,6.8519955E0,5.5068207E1,6.40235E1,2.1423967E1,2.6508303E0,1.7556686E1,6.315515E1,4.413257E1,6.7103806E1,7.555583E1,2.7454907E2,5.1831836E2,2.1698828E2,2.2095703E1,1.4079729E1,2.4992188E1,0E0,0E0,0E0,0E0,0E0,0E0,0E0,0E0,0E0,0E0,0E0,0E0,0E0,0E0,0E0,0E0,0E0,0E0,0E0,0E0,0E0,0E0,0E0,0E0,0E0,0E0,0E0,0E0,0E0,0E0,0E0,0E0,0E0,0E0,0E0,0E0,0E0,0E0,0E0,0E0,0E0,0E0,0E0,0E0,0E0,0E0,0E0,0E0,0E0,0E0,0E0,0E0,0E0,0E0,0E0,0E0,0E0,0E0,0E0,0E0,0E0,0E0,0E0,0E0],"parents":[2147483647,0,0,1,1,2,2,3,3,4,4,5,5,6,6,7,7,8,8,9,9,10,10,11,11,12,12,13,13,14,14,15,15,16,16,17,17,18,18,19,19,20,20,21,21,22,22,23,23,24,24,25,25,26,26,27,27,28,28,29,29,30,30,31,31,32,32,33,33,34,34,35,35,36,36,37,37,38,38,39,39,40,40,41,41,42,42,43,43,44,44,45,45,46,46,47,47,48,48,49,49,50,50,51,51,52,52,53,53,54,54,55,55,56,56,57,57,58,58,59,59,60,60,61,61,62,62],"right_children":[2,4,6,8,10,12,14,16,18,20,22,24,26,28,30,32,34,36,38,40,42,44,46,48,50,52,54,56,58,60,62,64,66,68,70,72,74,76,78,80,82,84,86,88,90,92,94,96,98,100,102,104,106,108,110,112,114,116,118,120,122,124,126,-1,-1,-1,-1,-1,-1,-1,-1,-1,-1,-1,-1,-1,-1,-1,-1,-1,-1,-1,-1,-1,-1,-1,-1,-1,-1,-1,-1,-1,-1,-1,-1,-1,-1,-1,-1,-1,-1,-1,-1,-1,-1,-1,-1,-1,-1,-1,-1,-1,-1,-1,-1,-1,-1,-1,-1,-1,-1,-1,-1,-1,-1,-1,-1],"split_conditions":[8.117743E-1,5.351517E-2,-3.6365765E-1,-1.7551334E-1,8.3297356E1,-8.517701E-1,9.591467E-1,4.9947735E1,5.7144558E1,1.4385839E-1,1.6181947E-1,1.6608356E2,8.045352E1,7.403754E1,9.737554E-1,8.183651E-1,-3.3002883E-1,1.4385839E-1,5.832391E-1,7.7841175E-1,6.6266E1,6.3598037E-1,1.960919E-1,1.4385839E-1,1E0,1.4385839E-1,1E0,5.921385E1,2.5868237E-1,1.5955736E2,3.927593E1,3.927593E1,4.0296128E-1,3.517759E-1,5.536889E-1,2.1008386E-3,3.3958145E1,1.2078416E2,9.007007E-2,6.747873E-2,1.2695087E-1,-2.4450535E-3,-1.0833296E0,7.7978724E-1,7.762916E-1,1E0,3.2271165E-1,9.2714256E-1,-1.3248343E0,2.6444376E-1,4.3844816E-1,9.9993414E-1,5.921385E1,9.7230685E-1,2.979177E-1,1.6135322E-2,2.6752675E-1,1E0,1.377332E2,6.6266E1,9.675458E-1,9.793811E-1,1.5126613E2,-1.8362024E-1,-1.5060404E-1,-1.9632982E-1,-8.709677E-2,-1.8273333E-1,-3.483871E-2,-1.0474446E-1,-1.4483508E-1,-1.4126867E-1,-9.5037885E-2,-1.8500847E-1,-1.403351E-1,-8.817689E-3,-9.061697E-2,-1.3334307E-1,-8.782466E-2,-4.066878E-3,1.5493841E-1,-3.9423946E-2,3.368331E-2,-1.6938499E-1,-8.337259E-2,-1.3664189E-1,-1.2321429E-2,-3.0992167E-2,6.116962E-2,-6.72996E-2,-1.4461011E-2,1.3689522E-1,-4.762709E-3,2.3820932E-1,1.9520547E-2,2.2048998E-1,-1.20000005E-1,-1.4946719E-1,-4.664151E-2,7.414685E-2,1.9441588E-1,1.3872833E-2,-8.300863E-2,2.2378379E-1,-0E0,-1.9138174E-1,-5.4108217E-2,2.0934917E-1,4.3776825E-1,1.644025E-2,1.6239017E-1,-7.448535E-2,7.484296E-2,8.582575E-3,2.4244554E-1,2.873534E-1,1.11480705E-1,4.6230906E-1,3.4468994E-1,1.6631237E-1,5.3349906E-1,3.1593812E-1,3.9853808E-1,5.3097345E-3,4.2720002E-1,5.908405E-1,5.490209E-1],"split_indices":[3,3,6,3,4,6,3,4,4,4,2,4,4,4,3,1,3,4,0,0,4,0,2,4,7,4,7,4,2,4,4,4,2,2,0,3,4,4,2,2,3,6,6,1,1,7,6,3,6,2,0,1,4,3,2,6,2,7,4,4,3,3,4,0,0,0,0,0,0,0,0,0,0,0,0,0,0,0,0,0,0,0,0,0,0,0,0,0,0,0,0,0,0,0,0,0,0,0,0,0,0,0,0,0,0,0,0,0,0,0,0,0,0,0,0,0,0,0,0,0,0,0,0,0,0,0,0],"split_type":[0,0,0,0,0,0,0,0,0,0,0,0,0,0,0,0,0,0,0,0,0,0,0,0,0,0,0,0,0,0,0,0,0,0,0,0,0,0,0,0,0,0,0,0,0,0,0,0,0,0,0,0,0,0,0,0,0,0,0,0,0,0,0,0,0,0,0,0,0,0,0,0,0,0,0,0,0,0,0,0,0,0,0,0,0,0,0,0,0,0,0,0,0,0,0,0,0,0,0,0,0,0,0,0,0,0,0,0,0,0,0,0,0,0,0,0,0,0,0,0,0,0,0,0,0,0,0],"sum_hessian":[1.6102688E5,1.19492625E5,4.153425E4,7.9290375E4,4.020225E4,8.129625E3,3.3404625E4,5.5380375E4,2.391E4,1.2258E4,2.794425E4,4.836E3,3.293625E3,2.02485E4,1.3156125E4,5.042475E4,4.955625E3,1.62435E4,7.6665E3,5.666625E3,6.591375E3,2.129775E4,6.6465E3,2.339625E3,2.496375E3,4.1775E2,2.875875E3,1.7805E3,1.8468E4,5.14425E3,8.011875E3,3.749625E3,4.6675125E4,2.89575E3,2.059875E3,6.221625E3,1.0021875E4,1.720125E3,5.946375E3,1.390875E3,4.27575E3,4.7505E3,1.840875E3,7.379625E3,1.3918125E4,3.81E3,2.8365E3,6.0375E1,2.27925E3,1.6455E3,8.50875E2,2.8125E1,3.89625E2,2.0505E3,8.25375E2,1.2345E3,5.46E2,4.91625E3,1.355175E4,3.872625E3,1.271625E3,2.775E1,7.984125E3,3.564375E3,1.8525E2,4.6645125E4,3E1,2.877375E3,1.8375E1,6.81375E2,1.3785E3,3.73125E3,2.490375E3,8.71725E3,1.304625E3,9.43125E2,7.77E2,4.282125E3,1.66425E3,2.75625E2,1.11525E3,1.94325E3,2.3325E3,3.69E3,1.0605E3,7.21875E2,1.119E3,1.801875E3,5.57775E3,5.1075E3,8.810625E3,3.070875E3,7.39125E2,2.5455E3,2.91E2,5.5125E1,5.25E0,1.61775E3,6.615E2,9.66E2,6.795E2,3.45E2,5.05875E2,2.2125E1,6E0,2.65875E2,1.2375E2,1.935E3,1.155E2,5.41875E2,2.835E2,3.9975E2,8.3475E2,1.9125E2,3.5475E2,3.910125E3,1.006125E3,6.520125E3,7.031625E3,1.51875E2,3.72075E3,7.425E2,5.29125E2,1.3125E1,1.4625E1,6.0255E3,1.958625E3],"tree_param":{"num_deleted":"0","num_feature":"8","num_nodes":"127","size_leaf_vector":"1"}},{"base_weights":[-4.036149E-1,-4.6366167E-1,1.4615227E-1,-6.0099983E-1,-3.159016E-1,4.1739503E-1,-2.46844E-1,-4.697512E-1,-6.306327E-1,-2.128882E-1,-5.5267966E-1,1.9202363E-1,7.2498107E-1,-4.124163E-1,5.1343024E-2,-5.3112894E-1,-3.122992E-1,-5.52532E-1,-6.4260095E-1,-4.1468355E-1,-9.320836E-2,-4.516188E-1,-6.166245E-1,-5.254978E-1,2.6732624E-1,2.3777738E-1,8.27831E-1,-3.122185E-1,-5.8012694E-1,5.71475E-1,-2.074098E-1,-6.143187E-1,-5.094498E-1,-4.006572E-1,-2.0525195E-1,-5.907691E-1,-4.1618982E-1,-6.485578E-1,-5.880223E-1,-4.5599917E-1,-2.5487697E-1,-3.169908E-2,-2.791577E-1,-4.846008E-1,-2.2168441E-1,-6.276009E-1,-4.657147E-1,-1.7586885E-1,-3.494424E-1,1.0313413E-3,4.8068708E-1,-9.1925465E-2,3.719868E-1,5.497036E-1,1.0495539E0,-5.6932986E-1,-1.2286973E-1,-3.396985E-1,-6.0059327E-1,2.9134125E-1,8.268991E-1,-6.014607E-3,-4.681641E-1,-1.5376885E-1,-1.8746471E-1,-1.5642023E-1,-5.1538818E-2,-1.4552176E-1,-1.023163E-1,-3.798777E-2,-1.7139414E-1,-1.8285312E-1,-1.5732388E-1,-1.7237476E-1,-1.0922722E-1,-1.9560038E-1,-1.8434787E-1,-1.8356511E-1,-1.5437852E-1,-1.8313986E-1,-1.318057E-1,-1.5357298E-1,-4.18713E-2,-7.8398466E-2,2.2536267E-2,-1.1486691E-1,-4.8049107E-2,-1.6197848E-1,-1.1925983E-1,-1.1619366E-1,-4.615385E-2,-1.7378768E-1,-1.9378006E-1,-1.1506664E-1,-1.8040694E-1,-1.3230036E-1,-7.346939E-3,4.135241E-2,-1.2196901E-1,1.8435568E-1,6.860542E-2,-7.141404E-2,4.0629923E-2,4.0738728E-2,1.7305504E-1,2.1122256E-1,6.779841E-2,3.653163E-1,2.0333627E-1,-1.8151881E-1,-4.7566064E-2,-8.151272E-2,3.9388493E-2,-1.5045318E-1,-5.2785925E-3,-1.623705E-1,-1.9289586E-1,-8.689655E-2,1.0612092E-1,7.731398E-2,2.8257775E-1,-5.210226E-2,1.0363154E-1,-1.6700372E-1,-7.880269E-2],"categories":[],"categories_nodes":[],"categories_segments":[],"categories_sizes":[],"default_left":[0,0,0,0,0,0,0,0,0,0,0,0,0,0,0,0,0,0,0,0,0,0,0,0,0,0,0,0,0,0,0,0,0,0,0,0,0,0,0,0,0,0,0,0,0,0,0,0,0,0,0,0,0,0,0,0,0,0,0,0,0,0,0,0,0,0,0,0,0,0,0,0,0,0,0,0,0,0,0,0,0,0,0,0,0,0,0,0,0,0,0,0,0,0,0,0,0,0,0,0,0,0,0,0,0,0,0,0,0,0,0,0,0,0,0,0,0,0,0,0,0,0,0,0,0],"id":2,"left_children":[1,3,5,7,9,11,13,15,17,19,21,23,25,27,29,31,33,35,37,39,41,43,45,47,49,51,53,55,57,59,61,63,65,67,69,71,73,75,77,79,81,83,85,87,89,91,93,-1,95,97,99,101,103,105,107,109,111,113,115,117,119,121,123,-1,-1,-1,-1,-1,-1,-1,-1,-1,-1,-1,-1,-1,-1,-1,-1,-1,-1,-1,-1,-1,-1,-1,-1,-1,-1,-1,-1,-1,-1,-1,-1,-1,-1,-1,-1,-1,-1,-1,-1,-1,-1,-1,-1,-1,-1,-1,-1,-1,-1,-1,-1,-1,-1,-1,-1,-1,-1,-1,-1,-1,-1],"loss_changes":[5.315879E3,2.9457988E3,1.6903912E3,2.9232617E2,1.7056831E3,6.502313E2,3.1973877E2,1.3379858E2,5.701758E1,1.1769402E3,1.3673047E2,2.9277362E2,1.9858496E2,6.978967E1,3.113983E2,1.7672607E1,3.6715973E1,4.2309814E1,1.6917969E1,1.1967139E2,3.4989905E2,6.2229736E1,2.1212402E1,5.298935E0,2.7853018E2,3.0693378E1,2.0139087E2,1.26933716E2,7.453125E0,5.475644E1,8.1145454E1,1.8905029E0,3.1857422E1,1.0552704E1,5.0619957E1,7.6052246E0,1.4572418E1,5.2265625E0,8.878784E0,3.679712E1,1.10453964E2,5.6393164E2,9.380005E1,3.441101E1,1.1547096E1,1.034082E1,9.622223E0,0E0,3.990881E0,1.21710075E2,9.164874E1,6.7181535E0,2.3758247E1,7.254309E1,1.1303699E2,1.6139984E1,5.691736E1,6.473624E0,3.2573853E0,1.3447487E1,2.6044067E1,5.1493694E1,1.2101669E1,0E0,0E0,0E0,0E0,0E0,0E0,0E0,0E0,0E0,0E0,0E0,0E0,0E0,0E0,0E0,0E0,0E0,0E0,0E0,0E0,0E0,0E0,0E0,0E0,0E0,0E0,0E0,0E0,0E0,0E0,0E0,0E0,0E0,0E0,0E0,0E0,0E0,0E0,0E0,0E0,0E0,0E0,0E0,0E0,0E0,0E0,0E0,0E0,0E0,0E0,0E0,0E0,0E0,0E0,0E0,0E0,0E0,0E0,0E0,0E0,0E0,0E0],"parents":[2147483647,0,0,1,1,2,2,3,3,4,4,5,5,6,6,7,7,8,8,9,9,10,10,11,11,12,12,13,13,14,14,15,15,16,16,17,17,18,18,19,19,20,20,21,21,22,22,23,23,24,24,25,25,26,26,27,27,28,28,29,29,30,30,31,31,32,32,33,33,34,34,35,35,36,36,37,37,38,38,39,39,40,40,41,41,42,42,43,43,44,44,45,45,46,46,48,48,49,49,50,50,51,51,52,52,53,53,54,54,55,55,56,56,57,57,58,58,59,59,60,60,61,61,62,62],"right_children":[2,4,6,8,10,12,14,16,18,20,22,24,26,28,30,32,34,36,38,40,42,44,46,48,50,52,54,56,58,60,62,64,66,68,70,72,74,76,78,80,82,84,86,88,90,92,94,-1,96,98,100,102,104,106,108,110,112,114,116,118,120,122,124,-1,-1,-1,-1,-1,-1,-1,-1,-1,-1,-1,-1,-1,-1,-1,-1,-1,-1,-1,-1,-1,-1,-1,-1,-1,-1,-1,-1,-1,-1,-1,-1,-1,-1,-1,-1,-1,-1,-1,-1,-1,-1,-1,-1,-1,-1,-1,-1,-1,-1,-1,-1,-1,-1,-1,-1,-1,-1,-1,-1,-1,-1],"split_conditions":[1E0,4.9947735E1,9.760614E-1,1.4385839E-1,3.019115E-1,1.54605E2,1.54605E2,9.721307E-2,8.6233324E-1,1.9119145E-1,5.454589E-1,-3.887404E-1,1.08946E-1,5.653305E-1,-2.866767E-1,-1.9376744E-1,1.00646056E-1,2.4364014E1,-2.7688216E-2,-7.3367363E-1,2.3085271E-1,1.512246E-1,1.340299E-1,-5.195666E-1,-1.6636018E0,6.1284536E-1,5.392834E-1,-5.921541E-1,8.212053E1,5.392834E-1,4.4569668E-1,7.380523E-1,1.0820877E-1,1.2162721E0,1.8486496E1,2.512485E0,-4.3695685E-1,2.3025398E1,3.2615352E-2,-3.6495873E-1,-3.1871057E-1,1.2135445E-1,6.2840503E-1,7.377641E-1,5.045305E-1,6.4196765E-1,9.999996E-1,-1.7586885E-1,4.9947735E1,1.5951633E-1,2.0116177E-1,9.932063E-2,8.801817E-1,-3.4826398E-1,-3.173868E-1,1.377332E2,7.462777E-1,6.504845E-1,7.306512E-1,-8.381523E0,1.7079645E2,8.2921565E-1,7.713304E-1,-1.5376885E-1,-1.8746471E-1,-1.5642023E-1,-5.1538818E-2,-1.4552176E-1,-1.023163E-1,-3.798777E-2,-1.7139414E-1,-1.8285312E-1,-1.5732388E-1,-1.7237476E-1,-1.0922722E-1,-1.9560038E-1,-1.8434787E-1,-1.8356511E-1,-1.5437852E-1,-1.8313986E-1,-1.318057E-1,-1.5357298E-1,-4.18713E-2,-7.8398466E-2,2.2536267E-2,-1.1486691E-1,-4.8049107E-2,-1.6197848E-1,-1.1925983E-1,-1.1619366E-1,-4.615385E-2,-1.7378768E-1,-1.9378006E-1,-1.1506664E-1,-1.8040694E-1,-1.3230036E-1,-7.346939E-3,4.135241E-2,-1.2196901E-1,1.8435568E-1,6.860542E-2,-7.141404E-2,4.0629923E-2,4.0738728E-2,1.7305504E-1,2.1122256E-1,6.779841E-2,3.653163E-1,2.0333627E-1,-1.8151881E-1,-4.7566064E-2,-8.151272E-2,3.9388493E-2,-1.5045318E-1,-5.2785925E-3,-1.623705E-1,-1.9289586E-1,-8.689655E-2,1.0612092E-1,7.731398E-2,2.8257775E-1,-5.210226E-2,1.0363154E-1,-1.6700372E-1,-7.880269E-2],"split_indices":[7,4,1,4,2,4,4,3,1,3,5,3,2,5,6,3,2,4,3,6,2,6,6,3,6,0,0,6,4,0,2,1,2,0,0,0,3,4,6,3,3,2,0,0,0,5,1,0,4,2,2,2,1,6,6,4,0,0,5,6,4,0,0,0,0,0,0,0,0,0,0,0,0,0,0,0,0,0,0,0,0,0,0,0,0,0,0,0,0,0,0,0,0,0,0,0,0,0,0,0,0,0,0,0,0,0,0,0,0,0,0,0,0,0,0,0,0,0,0,0,0,0,0,0,0],"split_type":[0,0,0,0,0,0,0,0,0,0,0,0,0,0,0,0,0,0,0,0,0,0,0,0,0,0,0,0,0,0,0,0,0,0,0,0,0,0,0,0,0,0,0,0,0,0,0,0,0,0,0,0,0,0,0,0,0,0,0,0,0,0,0,0,0,0,0,0,0,0,0,0,0,0,0,0,0,0,0,0,0,0,0,0,0,0,0,0,0,0,0,0,0,0,0,0,0,0,0,0,0,0,0,0,0,0,0,0,0,0,0,0,0,0,0,0,0,0,0,0,0,0,0,0,0],"sum_hessian":[1.6102688E5,1.4517112E5,1.585575E4,7.5237375E4,6.993375E4,9.381E3,6.47475E3,1.3861125E4,6.137625E4,4.87335E4,2.120025E4,5.415E3,3.966E3,4.162875E3,2.311875E3,9.971625E3,3.8895E3,8.161875E3,5.3214375E4,1.814175E4,3.059175E4,8.218875E3,1.2981375E4,5.1375E2,4.90125E3,6.91875E2,3.274125E3,2.60775E3,1.555125E3,7.67625E2,1.54425E3,2.05575E3,7.915875E3,2.12925E3,1.76025E3,6.371625E3,1.79025E3,4.7968125E4,5.24625E3,1.44135E4,3.72825E3,2.2988625E4,7.603125E3,7.186875E3,1.032E3,1.209825E4,8.83125E2,3.8025E2,1.335E2,2.180625E3,2.720625E3,2.0025E2,4.91625E2,1.453875E3,1.82025E3,1.105125E3,1.502625E3,1.23375E2,1.43175E3,3.67125E2,4.005E2,8.71875E2,6.72375E2,1.98E2,1.85775E3,7.64475E3,2.71125E2,8.7825E2,1.251E3,1.450125E3,3.10125E2,4.962E3,1.409625E3,4.40625E2,1.349625E3,4.3548E4,4.420125E3,3.954E3,1.29225E3,1.39875E3,1.301475E4,1.1535E3,2.57475E3,7.29825E3,1.5690375E4,4.060875E3,3.54225E3,4.39125E3,2.795625E3,2.985E2,7.335E2,3.337125E3,8.761125E3,5.52375E2,3.3075E2,1.03875E2,2.9625E1,1.633125E3,5.475E2,1.776E3,9.44625E2,1.21875E2,7.8375E1,2.29125E2,2.625E2,9.83625E2,4.7025E2,1.25175E3,5.685E2,1.01625E3,8.8875E1,9.47625E2,5.55E2,8.175E1,4.1625E1,6.0225E2,8.295E2,3.525E1,3.31875E2,6.7875E1,3.32625E2,5.90625E2,2.8125E2,4.6875E2,2.03625E2],"tree_param":{"num_deleted":"0","num_feature":"8","num_nodes":"125","size_leaf_vector":"1"}},{"base_weights":[6.5338844E-1,1.49398E0,-2.564736E-1,1.6230928E0,1.0428346E0,5.767202E-1,-3.9943185E-1,1.6661707E0,2.5399622E-1,1.0720086E0,1.705298E-1,-1.6886291E-1,1.0589433E0,5.549055E-2,-5.4018575E-1,1.261456E0,1.7414352E0,-1.5305588E-2,6.576506E-1,1.3642145E0,9.7637695E-1,-1.1582442E-1,5.3452325E-1,1.3928491E-1,-3.5474283E-1,1.4245658E0,5.6282914E-1,7.6537377E-1,-2.6639956E-1,-3.6161694E-1,-5.753992E-1,1.4298167E0,7.622717E-1,1.7647927E0,1.5805914E0,4.2134315E-1,-1.4403906E-1,1.1140584E0,5.149208E-1,1.1920137E0,1.4827045E0,1.1542578E0,6.696404E-1,2.1913044E-1,-2.0522387E-1,6.3358337E-1,9.90099E-2,2.2582412E-1,-4.585868E-2,-2.230059E-1,-4.5556527E-1,1.0755337E0,1.6690129E0,1.122284E0,5.2833892E-2,3.8278845E-1,1.3603361E0,7.820798E-2,-3.7593246E-1,-1.112115E-1,-5.063652E-1,-4.4146907E-1,-6.103633E-1,4.3751347E-1,1.20892756E-1,2.7823046E-1,1.1221144E-1,5.336713E-1,4.5323613E-1,4.54334E-1,5.0433236E-1,1.0077705E-1,2.0864442E-1,-5.180534E-2,1.18716575E-1,2.7966633E-1,4.2333934E-1,1.10217944E-1,2.7076462E-1,2.2023682E-1,3.667745E-1,4.0696904E-1,4.715124E-1,3.785983E-1,2.1914315E-1,1.6691005E-1,4.3134883E-1,3.1151244E-2,1.7142859E-1,1.7419355E-1,-6.832536E-2,1.3827656E-1,2.5760433E-1,-6.276151E-2,1.5606937E-1,1.127628E-1,1.9774267E-2,-3.0379748E-2,5.8064517E-2,-9.440444E-2,1.506793E-2,-1.22566566E-1,-1.7421624E-1,3.9679387E-1,1.6632678E-1,5.2130884E-1,4.2001572E-1,4.30422E-1,2.822631E-1,1.18597865E-1,-5.8478877E-2,5.988754E-2,2.5595543E-1,4.584499E-1,2.9311308E-1,7.456504E-2,-2.1145852E-2,2.1930768E-3,-1.3191064E-1,-8.6511634E-2,1.0594531E-1,2.4357243E-3,-1.5749373E-1,-4.323294E-2,-1.3967763E-1,1.9955656E-2,-1.8379161E-1],"categories":[],"categories_nodes":[],"categories_segments":[],"categories_sizes":[],"default_left":[0,0,0,0,0,0,0,0,0,0,0,0,0,0,0,0,0,0,0,0,0,0,0,0,0,0,0,0,0,0,0,0,0,0,0,0,0,0,0,0,0,0,0,0,0,0,0,0,0,0,0,0,0,0,0,0,0,0,0,0,0,0,0,0,0,0,0,0,0,0,0,0,0,0,0,0,0,0,0,0,0,0,0,0,0,0,0,0,0,0,0,0,0,0,0,0,0,0,0,0,0,0,0,0,0,0,0,0,0,0,0,0,0,0,0,0,0,0,0,0,0,0,0,0,0,0,0],"id":3,"left_children":[1,3,5,7,9,11,13,15,17,19,21,23,25,27,29,31,33,35,37,39,41,43,45,47,49,51,53,55,57,59,61,63,65,67,69,71,73,75,77,79,81,83,85,87,89,91,93,95,97,99,101,103,105,107,109,111,113,115,117,119,121,123,125,-1,-1,-1,-1,-1,-1,-1,-1,-1,-1,-1,-1,-1,-1,-1,-1,-1,-1,-1,-1,-1,-1,-1,-1,-1,-1,-1,-1,-1,-1,-1,-1,-1,-1,-1,-1,-1,-1,-1,-1,-1,-1,-1,-1,-1,-1,-1,-1,-1,-1,-1,-1,-1,-1,-1,-1,-1,-1,-1,-1,-1,-1,-1,-1],"loss_changes":[1.231581E5,4.8737188E3,9.210992E3,3.8375156E3,4.7384375E2,4.0720298E3,4.2264287E3,1.9195469E3,2.1592506E2,5.0233203E2,6.301748E1,2.5487422E2,1.246689E3,3.5642437E3,3.1675977E2,8.306426E2,1.970625E2,6.708565E1,5.120688E1,8.8862305E1,7.4035645E2,1.019251E1,1.1418434E1,2.68415E1,3.67594E1,3.3596582E2,8.3296625E2,1.1071538E3,4.051181E2,3.0099194E2,1.9689062E2,2.1642188E2,1.5983765E2,1.6376562E2,4.236328E1,6.129883E0,1.4318195E1,8.867081E0,3.4401657E1,2.451538E1,2.7362305E1,3.9154297E2,4.332444E2,2.8600469E0,4.8767853E0,8.023499E0,6.665083E0,2.7362263E1,7.1063523E0,3.0202644E1,9.006531E0,2.0960144E2,4.0541992E1,7.7565186E1,1.297705E2,2.5513065E2,1.2099585E2,6.560033E1,1.9903027E2,2.505012E2,5.040564E1,6.2481445E1,5.1458984E1,0E0,0E0,0E0,0E0,0E0,0E0,0E0,0E0,0E0,0E0,0E0,0E0,0E0,0E0,0E0,0E0,0E0,0E0,0E0,0E0,0E0,0E0,0E0,0E0,0E0,0E0,0E0,0E0,0E0,0E0,0E0,0E0,0E0,0E0,0E0,0E0,0E0,0E0,0E0,0E0,0E0,0E0,0E0,0E0,0E0,0E0,0E0,0E0,0E0,0E0,0E0,0E0,0E0,0E0,0E0,0E0,0E0,0E0,0E0,0E0,0E0,0E0,0E0,0E0],"parents":[2147483647,0,0,1,1,2,2,3,3,4,4,5,5,6,6,7,7,8,8,9,9,10,10,11,11,12,12,13,13,14,14,15,15,16,16,17,17,18,18,19,19,20,20,21,21,22,22,23,23,24,24,25,25,26,26,27,27,28,28,29,29,30,30,31,31,32,32,33,33,34,34,35,35,36,36,37,37,38,38,39,39,40,40,41,41,42,42,43,43,44,44,45,45,46,46,47,47,48,48,49,49,50,50,51,51,52,52,53,53,54,54,55,55,56,56,57,57,58,58,59,59,60,60,61,61,62,62],"right_children":[2,4,6,8,10,12,14,16,18,20,22,24,26,28,30,32,34,36,38,40,42,44,46,48,50,52,54,56,58,60,62,64,66,68,70,72,74,76,78,80,82,84,86,88,90,92,94,96,98,100,102,104,106,108,110,112,114,116,118,120,122,124,126,-1,-1,-1,-1,-1,-1,-1,-1,-1,-1,-1,-1,-1,-1,-1,-1,-1,-1,-1,-1,-1,-1,-1,-1,-1,-1,-1,-1,-1,-1,-1,-1,-1,-1,-1,-1,-1,-1,-1,-1,-1,-1,-1,-1,-1,-1,-1,-1,-1,-1,-1,-1,-1,-1,-1,-1,-1,-1,-1,-1,-1,-1,-1,-1],"split_conditions":[9.08665E-2,3.3958145E1,7.220963E1,1.253554E1,1.253554E1,1.4385839E-1,-1.2288655E0,1.4385839E-1,1.5304546E-1,-3.4170547E-1,1.3523309E-1,1.7992552E-1,-1.4056304E-1,1.54605E2,-3.6365765E-1,3.4432977E-2,1.5611467E1,2.3249588E1,1.8486496E1,3.496475E-1,9.209926E-2,2.3249588E1,1.9584023E2,2.3851354E0,3.4267783E-1,9.470922E-1,3.927593E1,9.5027804E-1,2.04338E-1,1.495881E2,1.9124512E-1,1E0,2.3262353E0,3.5289016E0,1.4063957E-1,1.3523309E-1,9.874816E-1,-1.616022E-1,2.3786308E-1,-8.2763153E-1,9.0088534E-1,5.351517E-2,9.6070594E-1,8.996373E-1,-1.8771626E2,9.1597843E-1,2.736726E-1,1.2695087E-1,8.058851E-1,1.0536794E-1,7.638917E-1,5.7144558E1,5.921385E1,8.510066E-2,5.921385E1,6.7824584E-1,1.3007758E2,1.3586713E-1,1.7235779E2,9.707607E-1,2.3186497E-1,2.3186497E-1,4.5922542E-1,4.3751347E-1,1.20892756E-1,2.7823046E-1,1.1221144E-1,5.336713E-1,4.5323613E-1,4.54334E-1,5.0433236E-1,1.0077705E-1,2.0864442E-1,-5.180534E-2,1.18716575E-1,2.7966633E-1,4.2333934E-1,1.10217944E-1,2.7076462E-1,2.2023682E-1,3.667745E-1,4.0696904E-1,4.715124E-1,3.785983E-1,2.1914315E-1,1.6691005E-1,4.3134883E-1,3.1151244E-2,1.7142859E-1,1.7419355E-1,-6.832536E-2,1.3827656E-1,2.5760433E-1,-6.276151E-2,1.5606937E-1,1.127628E-1,1.9774267E-2,-3.0379748E-2,5.8064517E-2,-9.440444E-2,1.506793E-2,-1.22566566E-1,-1.7421624E-1,3.9679387E-1,1.6632678E-1,5.2130884E-1,4.2001572E-1,4.30422E-1,2.822631E-1,1.18597865E-1,-5.8478877E-2,5.988754E-2,2.5595543E-1,4.584499E-1,2.9311308E-1,7.456504E-2,-2.1145852E-2,2.1930768E-3,-1.3191064E-1,-8.6511634E-2,1.0594531E-1,2.4357243E-3,-1.5749373E-1,-4.323294E-2,-1.3967763E-1,1.9955656E-2,-1.8379161E-1],"split_indices":[3,4,4,0,0,4,6,4,2,3,2,3,6,4,6,3,4,0,0,0,2,0,4,0,3,1,4,1,3,4,2,7,0,0,2,2,1,6,2,3,1,3,1,1,6,1,6,3,1,2,3,4,4,6,4,3,4,3,4,1,3,3,3,0,0,0,0,0,0,0,0,0,0,0,0,0,0,0,0,0,0,0,0,0,0,0,0,0,0,0,0,0,0,0,0,0,0,0,0,0,0,0,0,0,0,0,0,0,0,0,0,0,0,0,0,0,0,0,0,0,0,0,0,0,0,0,0],"split_type":[0,0,0,0,0,0,0,0,0,0,0,0,0,0,0,0,0,0,0,0,0,0,0,0,0,0,0,0,0,0,0,0,0,0,0,0,0,0,0,0,0,0,0,0,0,0,0,0,0,0,0,0,0,0,0,0,0,0,0,0,0,0,0,0,0,0,0,0,0,0,0,0,0,0,0,0,0,0,0,0,0,0,0,0,0,0,0,0,0,0,0,0,0,0,0,0,0,0,0,0,0,0,0,0,0,0,0,0,0,0,0,0,0,0,0,0,0,0,0,0,0,0,0,0,0,0,0],"sum_hessian":[1.6102688E5,8.369925E4,7.7327625E4,6.5073375E4,1.8625875E4,1.132425E4,6.6003375E4,6.3088125E4,1.98525E3,1.8022875E4,6.03E2,4.447875E3,6.876375E3,1.559625E4,5.0407125E4,9.8955E3,5.3192625E4,1.191375E3,7.93875E2,4.44075E3,1.3582125E4,3.37875E2,2.65125E2,1.673625E3,2.77425E3,3.95775E3,2.918625E3,4.86525E3,1.0731E4,8.30475E3,4.2102375E4,7.398375E3,2.497125E3,4.6438875E4,6.75375E3,2.7075E2,9.20625E2,1.875E2,6.06375E2,1.814625E3,2.626125E3,8.595E3,4.987125E3,7.0875E1,2.67E2,2.15625E2,4.95E1,1.140375E3,5.3325E2,1.204125E3,1.570125E3,1.632375E3,2.325375E3,1.39125E3,1.527375E3,2.962125E3,1.903125E3,2.58825E3,8.14275E3,3.04275E3,5.262E3,8.71875E3,3.3383625E4,7.19775E3,2.00625E2,1.750875E3,7.4625E2,4.3989E4,2.449875E3,4.083E3,2.67075E3,2.08125E2,6.2625E1,8.74875E2,4.575E1,1.18875E2,6.8625E1,4.40625E2,1.6575E2,1.15125E2,1.6995E3,1.093125E3,1.533E3,6.85125E3,1.74375E3,4.34775E3,6.39375E2,5.4375E1,1.65E1,6.75E0,2.6025E2,1.2375E2,9.1875E1,2.8875E1,2.0625E1,5.87625E2,5.5275E2,4.335E2,9.975E1,9.015E2,3.02625E2,1.1445E3,4.25625E2,1.10625E3,5.26125E2,1.848E3,4.77375E2,5.085E2,8.8275E2,6.40875E2,8.865E2,2.133E3,8.29125E2,1.3215E3,5.81625E2,1.206E3,1.38225E3,1.16175E3,6.981E3,2.20275E3,8.4E2,1.8375E2,5.07825E3,6.5475E2,8.064E3,1.1175E2,3.3271875E4],"tree_param":{"num_deleted":"0","num_feature":"8","num_nodes":"127","size_leaf_vector":"1"}},{"base_weights":[-2.0986558E-1,-2.4606392E-1,4.203216E-1,-3.3815E-1,-1.7390162E-2,7.6793563E-1,1.3709724E-1,-1.9829515E-1,-3.8923058E-1,2.8802508E-1,-1.7696255E-1,9.1989446E-1,6.1415946E-1,2.2702542E-1,-2.4100228E-1,-3.1968772E-1,-2.6093725E-2,-3.6516622E-1,-5.4612523E-1,-1.6013716E-1,3.8640156E-1,-1.1461828E-1,-4.1288686E-1,1.6647455E-1,9.454967E-1,3.847142E-1,6.896461E-1,9.117935E-2,3.3965522E-1,-1.2887788E-1,-5.314932E-1,-3.6132053E-1,-1.9448292E-1,1.1013258E-1,-1.5488128E-1,-2.852962E-1,-4.1138965E-1,-4.8384222E-1,-6.003942E-1,-2.0219725E-1,7.08266E-2,5.450433E-1,4.312851E-2,-8.10736E-2,-4.8572657E-1,-8.0706075E-2,-4.3589252E-1,-1.5082738E-1,2.8731775E-1,7.305261E-1,9.9627703E-1,1.958238E-1,4.7957087E-1,7.4824643E-1,5.9037954E-1,2.8867713E-1,-3.280539E-2,5.45363E-1,2.789975E-1,-1.713625E-1,5.1432896E-1,-1.7081702E-1,-5.744674E-1,-1.1700447E-1,-6.352236E-2,4.496795E-3,-7.877773E-2,1.7901567E-3,9.465093E-2,-6.993397E-2,1.855592E-2,-1.05325714E-1,-6.3290104E-2,-1.2867361E-1,-8.3394125E-2,1.5669481E-1,-1.4725989E-1,-1.0899198E-1,-1.8061002E-1,-8.304865E-2,-1.4269822E-2,1.2885575E-1,-1.6252732E-2,1.1603202E-1,1.9753534E-1,5.5059973E-2,-2.2563808E-2,7.252927E-3,-5.5483248E-2,-9.808589E-2,-1.6433838E-1,1.2725787E-3,-1.1134709E-1,-1.388555E-1,-7.068119E-2,3.874112E-2,1.9397536E-1,1.045002E-1,2.3857276E-1,2.8096005E-1,3.3408952E-1,3.5179973E-1,5.1272172E-2,1.8477055E-1,1.0416681E-1,2.1956693E-1,4.0456745E-1,2.5053358E-1,1.5869164E-1,1.4100765E-1,4.907369E-2,6.706515E-2,-3.909778E-2,2.0417756E-1,1.1621102E-1,1.304935E-1,5.8734167E-2,2.3066227E-1,-5.950669E-2,1.0123521E-1,2.936858E-1,1.3290247E-1,-7.440165E-2,-1.8294711E-1,-9.199724E-2],"categories":[],"categories_nodes":[],"categories_segments":[],"categories_sizes":[],"default_left":[0,0,0,0,0,0,0,0,0,0,0,0,0,0,0,0,0,0,0,0,0,0,0,0,0,0,0,0,0,0,0,0,0,0,0,0,0,0,0,0,0,0,0,0,0,0,0,0,0,0,0,0,0,0,0,0,0,0,0,0,0,0,0,0,0,0,0,0,0,0,0,0,0,0,0,0,0,0,0,0,0,0,0,0,0,0,0,0,0,0,0,0,0,0,0,0,0,0,0,0,0,0,0,0,0,0,0,0,0,0,0,0,0,0,0,0,0,0,0,0,0,0,0,0,0],"id":4,"left_children":[1,3,5,7,9,11,13,15,17,19,21,23,25,27,29,31,33,35,37,39,41,43,45,47,49,51,53,55,57,59,61,63,65,67,69,71,73,75,77,79,81,83,85,87,89,91,93,-1,95,97,99,101,103,105,107,109,111,113,115,117,119,121,123,-1,-1,-1,-1,-1,-1,-1,-1,-1,-1,-1,-1,-1,-1,-1,-1,-1,-1,-1,-1,-1,-1,-1,-1,-1,-1,-1,-1,-1,-1,-1,-1,-1,-1,-1,-1,-1,-1,-1,-1,-1,-1,-1,-1,-1,-1,-1,-1,-1,-1,-1,-1,-1,-1,-1,-1,-1,-1,-1,-1,-1,-1],"loss_changes":[3.4072441E3,2.9743164E3,7.98703E2,7.192832E2,1.9763445E3,8.455176E1,1.5211435E2,5.6316895E2,2.7827246E2,6.136229E2,3.9172314E2,3.514331E1,3.1143616E1,5.5254227E1,2.7935112E1,8.229773E1,1.9546829E2,2.3598145E2,3.2855225E1,2.4355316E1,6.2143774E2,2.6224985E2,4.2508057E1,5.1066275E0,1.8590942E1,7.9901733E0,7.4883423E0,4.014882E1,2.4492767E1,1.707563E1,3.6081314E0,5.0810303E1,5.629213E1,1.158271E2,9.711893E1,1.14581055E2,9.456836E1,3.256201E1,1.8162842E0,2.4451561E1,1.7363983E1,1.3983374E2,5.9964275E1,2.112637E2,1.7031403E1,8.9284935E0,2.800238E1,0E0,2.9062653E0,8.17984E0,8.974609E0,3.51187E0,5.1930084E0,7.3934326E0,7.2344666E0,1.4267616E1,2.5227432E1,9.323593E0,1.9740578E1,1.4971445E1,2.8555698E0,1.3834734E0,1.832077E0,0E0,0E0,0E0,0E0,0E0,0E0,0E0,0E0,0E0,0E0,0E0,0E0,0E0,0E0,0E0,0E0,0E0,0E0,0E0,0E0,0E0,0E0,0E0,0E0,0E0,0E0,0E0,0E0,0E0,0E0,0E0,0E0,0E0,0E0,0E0,0E0,0E0,0E0,0E0,0E0,0E0,0E0,0E0,0E0,0E0,0E0,0E0,0E0,0E0,0E0,0E0,0E0,0E0,0E0,0E0,0E0,0E0,0E0,0E0,0E0,0E0,0E0],"parents":[2147483647,0,0,1,1,2,2,3,3,4,4,5,5,6,6,7,7,8,8,9,9,10,10,11,11,12,12,13,13,14,14,15,15,16,16,17,17,18,18,19,19,20,20,21,21,22,22,23,23,24,24,25,25,26,26,27,27,28,28,29,29,30,30,31,31,32,32,33,33,34,34,35,35,36,36,37,37,38,38,39,39,40,40,41,41,42,42,43,43,44,44,45,45,46,46,48,48,49,49,50,50,51,51,52,52,53,53,54,54,55,55,56,56,57,57,58,58,59,59,60,60,61,61,62,62],"right_children":[2,4,6,8,10,12,14,16,18,20,22,24,26,28,30,32,34,36,38,40,42,44,46,48,50,52,54,56,58,60,62,64,66,68,70,72,74,76,78,80,82,84,86,88,90,92,94,-1,96,98,100,102,104,106,108,110,112,114,116,118,120,122,124,-1,-1,-1,-1,-1,-1,-1,-1,-1,-1,-1,-1,-1,-1,-1,-1,-1,-1,-1,-1,-1,-1,-1,-1,-1,-1,-1,-1,-1,-1,-1,-1,-1,-1,-1,-1,-1,-1,-1,-1,-1,-1,-1,-1,-1,-1,-1,-1,-1,-1,-1,-1,-1,-1,-1,-1,-1,-1,-1,-1,-1,-1],"split_conditions":[1.253554E1,1.4110612E2,1.641865E-1,8.801817E-1,8.645012E-1,1.1355011E-1,9.480425E-1,4.3926947E-2,9.4426686E-1,6.328084E-2,1E0,7.611721E-2,2.3249588E1,3.766869E1,9.752311E-1,2.5791746E1,1.4385839E-1,3.7761748E-1,9.7068787E-1,3.0898404E0,1.3699399E-1,9.7068787E-1,3.0810124E-1,-9.5446154E-2,2.9586462E1,1.5090119E1,1.4144328E-1,-1.7253208E-1,-2.5934675E-1,2.8968985E2,-1.2089024E-1,2.7321794E0,4.7775573E-1,2.3262353E0,1.151727E2,1.0212727E1,2.812801E0,6.3005364E-1,-3.6365765E-1,9.602311E-2,6.747873E-2,2.6152733E-1,6.1284536E-1,6.209056E-1,9.7662544E-1,9.6126205E-1,2.6203552E2,-1.5082738E-1,6.195352E1,1.181926E0,2.6152733E-1,-8.2763153E-1,-4.3695685E-1,9.987887E-1,-7.584216E-1,-4.6147686E-1,8.601731E-1,2.3786308E-1,9.389177E-1,1.7196196E0,1.2843928E-1,9.999998E-1,1.9899022E2,-1.1700447E-1,-6.352236E-2,4.496795E-3,-7.877773E-2,1.7901567E-3,9.465093E-2,-6.993397E-2,1.855592E-2,-1.05325714E-1,-6.3290104E-2,-1.2867361E-1,-8.3394125E-2,1.5669481E-1,-1.4725989E-1,-1.0899198E-1,-1.8061002E-1,-8.304865E-2,-1.4269822E-2,1.2885575E-1,-1.6252732E-2,1.1603202E-1,1.9753534E-1,5.5059973E-2,-2.2563808E-2,7.252927E-3,-5.5483248E-2,-9.808589E-2,-1.6433838E-1,1.2725787E-3,-1.1134709E-1,-1.388555E-1,-7.068119E-2,3.874112E-2,1.9397536E-1,1.045002E-1,2.3857276E-1,2.8096005E-1,3.3408952E-1,3.5179973E-1,5.1272172E-2,1.8477055E-1,1.0416681E-1,2.1956693E-1,4.0456745E-1,2.5053358E-1,1.5869164E-1,1.4100765E-1,4.907369E-2,6.706515E-2,-3.909778E-2,2.0417756E-1,1.1621102E-1,1.304935E-1,5.8734167E-2,2.3066227E-1,-5.950669E-2,1.0123521E-1,2.936858E-1,1.3290247E-1,-7.440165E-2,-1.8294711E-1,-9.199724E-2],"split_indices":[0,4,2,1,1,2,3,3,3,3,7,2,0,0,3,4,4,0,3,0,2,3,3,3,0,0,2,6,6,4,6,0,0,0,4,4,0,4,6,2,2,3,0,0,3,1,4,0,0,4,3,3,3,1,3,3,1,2,1,4,6,1,4,0,0,0,0,0,0,0,0,0,0,0,0,0,0,0,0,0,0,0,0,0,0,0,0,0,0,0,0,0,0,0,0,0,0,0,0,0,0,0,0,0,0,0,0,0,0,0,0,0,0,0,0,0,0,0,0,0,0,0,0,0,0],"split_type":[0,0,0,0,0,0,0,0,0,0,0,0,0,0,0,0,0,0,0,0,0,0,0,0,0,0,0,0,0,0,0,0,0,0,0,0,0,0,0,0,0,0,0,0,0,0,0,0,0,0,0,0,0,0,0,0,0,0,0,0,0,0,0,0,0,0,0,0,0,0,0,0,0,0,0,0,0,0,0,0,0,0,0,0,0,0,0,0,0,0,0,0,0,0,0,0,0,0,0,0,0,0,0,0,0,0,0,0,0,0,0,0,0,0,0,0,0,0,0,0,0,0,0,0,0],"sum_hessian":[1.4935814E5,1.4124552E5,8.112619E3,1.0069538E5,4.0550133E4,3.641514E3,4.4711055E3,2.694015E4,7.3755234E4,1.3915539E4,2.6634596E4,1.829074E3,1.8124401E3,3.6123372E3,8.587681E2,1.5800679E4,1.1139472E4,6.3949973E4,9.805261E3,2.5046719E3,1.1410867E4,2.1068592E4,5.5660034E3,6.035825E1,1.7687157E3,4.5018335E2,1.3622567E3,1.6382301E3,1.974107E3,6.2065125E2,2.3811684E2,1.1856351E4,3.9443289E3,5.4134673E3,5.726004E3,2.3445457E4,4.0504516E4,4.5701445E3,5.2351157E3,2.1189255E3,3.8574646E2,7.8037974E3,3.6070696E3,1.9323178E4,1.7454142E3,3.6080603E2,5.2051978E3,8.74849E0,5.160976E1,3.4091068E2,1.4278049E3,1.5152078E2,2.9866257E2,8.52475E2,5.0978177E2,6.3129663E2,1.0069334E3,4.4773102E2,1.5263761E3,5.828846E2,3.776669E1,2.588052E1,2.1223633E2,9.946641E3,1.9097096E3,9.680011E2,2.976328E3,3.5924038E3,1.8210637E3,4.2072783E3,1.5187253E3,1.243521E4,1.1010247E4,3.58002E4,4.7043154E3,3.1174606E1,4.5389697E3,3.7474487E1,5.197641E3,1.4286217E3,6.903038E2,9.905976E1,2.866867E2,3.2594197E3,4.544378E3,1.6494935E3,1.9575759E3,9.598237E3,9.72494E3,4.923139E2,1.2531002E3,2.799226E2,8.0883415E1,4.5865327E3,6.1866486E2,3.6776825E1,1.4832935E1,5.0291206E1,2.9061948E2,9.5209033E2,4.7571466E2,2.6230156E0,1.4889777E2,1.453179E2,1.5334465E2,8.320239E2,2.0451008E1,9.972784E1,4.1005392E2,2.565835E2,3.7471317E2,2.771325E2,7.298009E2,2.39463E2,2.08268E2,5.295561E2,9.9682E2,1.5499914E1,5.6738464E2,2.8603767E1,9.162922E0,2.3615415E0,2.3518978E1,1.8635648E2,2.5879848E1],"tree_param":{"num_deleted":"0","num_feature":"8","num_nodes":"125","size_leaf_vector":"1"}},{"base_weights":[6.8687783E-3,-3.6369428E-1,6.917113E-1,-5.418797E-1,-3.6100004E-2,1.625452E-2,8.298436E-1,-5.919778E-1,-4.2109728E-1,-1.9828817E-1,1.7216988E-2,-1.4016837E-1,2.772837E-1,6.5069497E-1,1.0396632E0,-6.029304E-1,-4.8582742E-1,-4.8175102E-1,-2.9876867E-1,-9.190068E-2,-2.5483322E-1,4.068029E-2,-2.783229E-1,-3.3170772E-1,4.265877E-2,4.0054646E-1,-2.158261E-2,1.3012977E-1,7.176678E-1,9.1546804E-1,1.1345202E0,-5.512604E-1,-6.064347E-1,-5.571129E-1,-3.9084822E-1,-3.7150946E-1,-5.4843795E-1,-1.1183818E-1,-3.5673484E-1,-2.2166035E-1,-3.1325333E-2,-4.6618304E-1,-1.8196335E-1,-1.160595E-1,9.3656965E-2,-4.149364E-1,3.2494327E-1,-4.5503637E-1,-1.4028871E-1,-4.197385E-1,1.6388337E-1,3.1288466E-1,6.115395E-1,1.7830464E-1,-1.5778072E-1,-1.5531227E-1,2.2144684E-1,3.4026116E-1,7.914461E-1,1.0165119E0,6.864757E-1,1.0665998E0,1.167074E0,-1.7089815E-1,-1.5454477E-1,-1.8249999E-1,-1.6476837E-1,-1.6778697E-1,6.179473E-2,-1.01743646E-1,-1.4246126E-1,-1.1786022E-1,-5.5976078E-2,-1.700774E-1,-1.2610768E-1,-1.64926E-2,-1.3006555E-1,-1.2282746E-1,-8.3452135E-2,-5.2004404E-2,-1.1151425E-1,4.074997E-2,-2.4269927E-2,-1.4504957E-1,-9.3817696E-2,-7.518512E-2,-2.1677773E-2,1.2702158E-2,-4.4926833E-2,4.1558E-2,-3.7415188E-2,-1.4585374E-1,-3.396891E-3,2.4437234E-1,5.273901E-3,1.1438591E-1,-1.4997512E-1,-9.350863E-2,-3.540937E-3,9.478371E-2,-1.517579E-1,8.263637E-2,-2.612848E-2,3.992099E-2,1.1056112E-1,2.0998359E-1,9.177346E-2,-1.9529257E-3,7.6294824E-2,-8.3376944E-2,6.351694E-2,1.692426E-1,-7.017453E-2,8.1860505E-2,-4.4154443E-2,1.8090668E-1,3.5172295E-2,2.493336E-1,9.786256E-2,-4.212265E-3,3.112599E-1,7.658783E-2,2.1572152E-1,-5.843462E-2,3.2184663E-1,3.435541E-1,3.565174E-1],"categories":[],"categories_nodes":[],"categories_segments":[],"categories_sizes":[],"default_left":[0,0,0,0,0,0,0,0,0,0,0,0,0,0,0,0,0,0,0,0,0,0,0,0,0,0,0,0,0,0,0,0,0,0,0,0,0,0,0,0,0,0,0,0,0,0,0,0,0,0,0,0,0,0,0,0,0,0,0,0,0,0,0,0,0,0,0,0,0,0,0,0,0,0,0,0,0,0,0,0,0,0,0,0,0,0,0,0,0,0,0,0,0,0,0,0,0,0,0,0,0,0,0,0,0,0,0,0,0,0,0,0,0,0,0,0,0,0,0,0,0,0,0,0,0,0,0],"id":5,"left_children":[1,3,5,7,9,11,13,15,17,19,21,23,25,27,29,31,33,35,37,39,41,43,45,47,49,51,53,55,57,59,61,63,65,67,69,71,73,75,77,79,81,83,85,87,89,91,93,95,97,99,101,103,105,107,109,111,113,115,117,119,121,123,125,-1,-1,-1,-1,-1,-1,-1,-1,-1,-1,-1,-1,-1,-1,-1,-1,-1,-1,-1,-1,-1,-1,-1,-1,-1,-1,-1,-1,-1,-1,-1,-1,-1,-1,-1,-1,-1,-1,-1,-1,-1,-1,-1,-1,-1,-1,-1,-1,-1,-1,-1,-1,-1,-1,-1,-1,-1,-1,-1,-1,-1,-1,-1,-1],"loss_changes":[3.9937754E4,5.9608643E3,5.1554316E3,3.9997266E2,3.1111102E2,3.831282E2,1.7236758E3,5.4057617E1,1.4375854E2,5.3522034E1,1.8777318E2,2.0548065E2,1.2953397E2,8.6272266E2,2.4784961E2,7.336914E0,2.9420776E1,9.510498E1,6.964899E1,2.428598E1,8.941623E1,2.0831708E2,1.642794E2,6.758377E1,1.6838951E2,4.5851807E1,2.8004408E1,7.359842E1,6.1027637E2,2.1110303E2,2.5230469E1,1.5020142E0,3.975586E0,4.265686E0,8.006897E0,1.9238098E1,1.8882812E1,2.7851112E1,2.020514E1,7.0649757E0,1.7480934E1,3.8062134E0,3.2541412E1,3.3833252E1,1.8373557E2,4.670291E1,5.5415024E1,6.558612E1,2.4756042E1,3.9695343E1,6.6663956E1,1.7570694E1,1.9500061E1,5.8584375E0,2.721457E1,3.8848633E1,4.0578545E1,2.1014774E2,3.3818945E2,1.3755762E2,3.9248413E1,3.0749512E1,2.4111328E0,0E0,0E0,0E0,0E0,0E0,0E0,0E0,0E0,0E0,0E0,0E0,0E0,0E0,0E0,0E0,0E0,0E0,0E0,0E0,0E0,0E0,0E0,0E0,0E0,0E0,0E0,0E0,0E0,0E0,0E0,0E0,0E0,0E0,0E0,0E0,0E0,0E0,0E0,0E0,0E0,0E0,0E0,0E0,0E0,0E0,0E0,0E0,0E0,0E0,0E0,0E0,0E0,0E0,0E0,0E0,0E0,0E0,0E0,0E0,0E0,0E0,0E0,0E0,0E0],"parents":[2147483647,0,0,1,1,2,2,3,3,4,4,5,5,6,6,7,7,8,8,9,9,10,10,11,11,12,12,13,13,14,14,15,15,16,16,17,17,18,18,19,19,20,20,21,21,22,22,23,23,24,24,25,25,26,26,27,27,28,28,29,29,30,30,31,31,32,32,33,33,34,34,35,35,36,36,37,37,38,38,39,39,40,40,41,41,42,42,43,43,44,44,45,45,46,46,47,47,48,48,49,49,50,50,51,51,52,52,53,53,54,54,55,55,56,56,57,57,58,58,59,59,60,60,61,61,62,62],"right_children":[2,4,6,8,10,12,14,16,18,20,22,24,26,28,30,32,34,36,38,40,42,44,46,48,50,52,54,56,58,60,62,64,66,68,70,72,74,76,78,80,82,84,86,88,90,92,94,96,98,100,102,104,106,108,110,112,114,116,118,120,122,124,126,-1,-1,-1,-1,-1,-1,-1,-1,-1,-1,-1,-1,-1,-1,-1,-1,-1,-1,-1,-1,-1,-1,-1,-1,-1,-1,-1,-1,-1,-1,-1,-1,-1,-1,-1,-1,-1,-1,-1,-1,-1,-1,-1,-1,-1,-1,-1,-1,-1,-1,-1,-1,-1,-1,-1,-1,-1,-1,-1,-1,-1,-1,-1,-1],"split_conditions":[7.344603E-1,3.9077498E-2,-4.807257E-1,-1.7551334E-1,1.2695087E-1,1.8640965E2,9.480425E-1,4.9947735E1,5.474147E1,1.4385839E-1,9.767119E-1,-1.3248343E0,1E0,8.045352E1,9.7068787E-1,8.1020516E-1,-3.3002883E-1,1.4385839E-1,5.832391E-1,-2.4000647E2,6.8311806E1,7.380523E-1,2.0218129E2,1.4795233E2,8.212053E1,3.05814E-1,4.5160937E-1,-9.320592E-2,2.10211E-1,1.5292911E2,9.780286E-1,-3.1871057E-1,1.452376E-1,9.9986064E-1,1.2581266E2,9.2777446E-2,3.3958145E1,1.2776253E-1,-1.6674483E2,8.3002186E-1,7.713304E-1,2.9929187E0,-1.7846625E2,1.4385839E-1,1E0,1.452376E-1,7.14139E-1,1.4385839E-1,1.8666656E-1,1.4385839E-1,1E0,1.7811842E-1,2.6203552E2,1.8517631E-1,2.7044907E-1,1.4385839E-1,1E0,1.3612263E2,2.2030681E-1,3.3958145E1,3.365868E-1,2.5791746E1,9.8454165E-1,-1.7089815E-1,-1.5454477E-1,-1.8249999E-1,-1.6476837E-1,-1.6778697E-1,6.179473E-2,-1.01743646E-1,-1.4246126E-1,-1.1786022E-1,-5.5976078E-2,-1.700774E-1,-1.2610768E-1,-1.64926E-2,-1.3006555E-1,-1.2282746E-1,-8.3452135E-2,-5.2004404E-2,-1.1151425E-1,4.074997E-2,-2.4269927E-2,-1.4504957E-1,-9.3817696E-2,-7.518512E-2,-2.1677773E-2,1.2702158E-2,-4.4926833E-2,4.1558E-2,-3.7415188E-2,-1.4585374E-1,-3.396891E-3,2.4437234E-1,5.273901E-3,1.1438591E-1,-1.4997512E-1,-9.350863E-2,-3.540937E-3,9.478371E-2,-1.517579E-1,8.263637E-2,-2.612848E-2,3.992099E-2,1.1056112E-1,2.0998359E-1,9.177346E-2,-1.9529257E-3,7.6294824E-2,-8.3376944E-2,6.351694E-2,1.692426E-1,-7.017453E-2,8.1860505E-2,-4.4154443E-2,1.8090668E-1,3.5172295E-2,2.493336E-1,9.786256E-2,-4.212265E-3,3.112599E-1,7.658783E-2,2.1572152E-1,-5.843462E-2,3.2184663E-1,3.435541E-1,3.565174E-1],"split_indices":[3,3,6,3,3,4,3,4,4,4,1,6,7,4,3,1,3,4,0,6,4,1,4,4,4,2,0,6,2,4,3,3,6,1,4,2,4,2,6,1,0,0,6,4,7,6,0,4,2,4,7,2,4,2,2,4,7,4,6,4,2,4,3,0,0,0,0,0,0,0,0,0,0,0,0,0,0,0,0,0,0,0,0,0,0,0,0,0,0,0,0,0,0,0,0,0,0,0,0,0,0,0,0,0,0,0,0,0,0,0,0,0,0,0,0,0,0,0,0,0,0,0,0,0,0,0,0],"split_type":[0,0,0,0,0,0,0,0,0,0,0,0,0,0,0,0,0,0,0,0,0,0,0,0,0,0,0,0,0,0,0,0,0,0,0,0,0,0,0,0,0,0,0,0,0,0,0,0,0,0,0,0,0,0,0,0,0,0,0,0,0,0,0,0,0,0,0,0,0,0,0,0,0,0,0,0,0,0,0,0,0,0,0,0,0,0,0,0,0,0,0,0,0,0,0,0,0,0,0,0,0,0,0,0,0,0,0,0,0,0,0,0,0,0,0,0,0,0,0,0,0,0,0,0,0,0,0],"sum_hessian":[1.5737122E5,1.0211697E5,5.5254242E4,6.614089E4,3.5976074E4,9.381331E3,4.5872914E4,4.674721E4,1.9393682E4,8.899978E3,2.7076098E4,5.866355E3,3.514976E3,2.4747262E4,2.112565E4,4.23707E4,4.376512E3,1.2963231E4,6.4304507E3,3.08961E3,5.8103677E3,2.5085396E4,1.9907003E3,2.864519E3,3.001836E3,2.4883533E3,1.0266227E3,2.82125E3,2.1926012E4,9.1527295E3,1.1972922E4,2.7011533E3,3.9669547E4,2.4973171E3,1.8791951E3,4.8885083E3,8.0747236E3,1.5227579E3,4.907693E3,9.8244196E2,2.1071682E3,1.4883112E3,4.3220566E3,6.336545E3,1.8748852E4,1.6233864E3,3.67314E2,1.7412672E3,1.1232518E3,6.2300244E2,2.3788335E3,1.7597207E3,7.2863257E2,4.159121E2,6.1071063E2,6.8363135E2,2.1376187E3,3.5862822E3,1.8339729E4,6.3481436E3,2.804586E3,3.890183E3,8.082739E3,1.779602E3,9.2155133E2,3.8385957E4,1.2835892E3,2.490479E3,6.8379693E0,1.1664589E3,7.1273615E2,4.3813525E3,5.0715552E2,7.0532446E3,1.02147864E3,1.295032E3,2.277259E2,2.9350054E3,1.9726874E3,7.4479724E2,2.3764476E2,4.8158508E2,1.625583E3,1.3354712E3,1.5283994E2,2.6576152E3,1.6644412E3,1.1114792E3,5.225066E3,1.555343E4,3.195422E3,1.3796556E3,2.4373073E2,1.4101942E2,2.2629457E2,8.830289E1,1.6529644E3,4.8063412E2,6.4261774E2,6.500791E1,5.579945E2,1.6467024E3,7.3213104E2,4.1670944E2,1.3430112E3,5.641551E2,1.6447746E2,1.2147406E2,2.9443805E2,4.610502E2,1.4966043E2,6.672431E1,6.1690704E2,1.8761647E3,2.6145413E2,1.6456652E3,1.9406172E3,1.689821E4,1.4415186E3,1.26905716E2,6.221238E3,1.9773685E2,2.606849E3,1.8946732E1,3.8712363E3,4.0144795E3,4.0682593E3],"tree_param":{"num_deleted":"0","num_feature":"8","num_nodes":"127","size_leaf_vector":"1"}},{"base_weights":[-3.4837803E-1,-5.3991604E-1,-1.8786994E-1,-3.9226428E-1,-5.7640135E-1,-9.098002E-2,-4.8515135E-1,-4.1776955E-1,9.375679E-2,-4.9520668E-1,-5.910237E-1,-1.8415117E-1,3.337313E-1,-4.0250432E-1,-5.754232E-1,-4.617055E-1,-2.32713E-1,-9.195997E-3,4.2415217E-1,-5.385602E-1,-3.5014808E-1,-5.98168E-1,-5.1563156E-1,-3.689589E-1,-8.9781925E-2,1.7249326E-1,5.2772194E-1,-4.5348054E-1,-1.8602145E-1,-5.894165E-1,-5.044924E-1,-5.435109E-1,-4.322412E-1,-1.9064477E-1,-1.6457126E-1,-6.492933E-2,1.8471591E-1,6.332933E-1,-2.6422648E-2,-5.579196E-1,-4.7593442E-1,-5.20978E-1,-2.9295075E-1,-6.0011244E-1,-4.8176607E-1,-5.461989E-1,-4.3307814E-1,-4.4246408E-1,-3.052505E-1,-4.9294725E-1,-5.7126243E-2,3.1275222E-1,-5.013409E-2,3.751256E-1,6.7569625E-1,-4.8431152E-1,-2.4018711E-1,-3.1538916E-1,4.941871E-3,-5.909853E-1,5.5327807E-3,-4.242984E-1,-5.8157736E-1,-1.2027959E-1,-1.6819832E-1,-1.3577764E-1,-5.1163223E-2,-8.6089626E-2,-2.9013706E-2,-1.2075577E-1,-3.3237063E-3,8.877264E-2,-1.5053384E-1,2.0951276E-1,-7.3988244E-2,-1.7051318E-1,6.72181E-2,-1.6942298E-1,-1.3171355E-1,-1.458565E-1,2.2822132E-2,-1.8289724E-1,-1.4538215E-1,-1.187399E-1,-3.8958497E-2,-1.8106492E-1,-1.7159775E-1,-6.9174275E-2,-1.6379237E-1,-1.5337138E-1,-1.7519474E-1,-1.3583256E-1,-4.0136434E-2,-1.3845025E-1,-1.14364244E-1,-8.684471E-2,-1.7991659E-1,-1.6321206E-1,-1.1653335E-1,1.4912925E-2,-7.14828E-2,1.3787949E-2,1.1737448E-1,-7.563617E-2,7.092716E-2,3.816936E-2,1.5842535E-1,9.914789E-2,2.375186E-1,-1.6289705E-1,-1.234884E-1,-1.12484016E-1,-5.2946564E-2,-1.1396424E-1,-3.4062855E-2,-1.09391816E-1,6.439132E-2,-1.7953935E-1,-1.5058616E-1,2.4016708E-1,-6.089096E-2,-1.5232983E-1,-7.9583645E-2,1.514519E-1,-1.755715E-1],"categories":[],"categories_nodes":[],"categories_segments":[],"categories_sizes":[],"default_left":[0,0,0,0,0,0,0,0,0,0,0,0,0,0,0,0,0,0,0,0,0,0,0,0,0,0,0,0,0,0,0,0,0,0,0,0,0,0,0,0,0,0,0,0,0,0,0,0,0,0,0,0,0,0,0,0,0,0,0,0,0,0,0,0,0,0,0,0,0,0,0,0,0,0,0,0,0,0,0,0,0,0,0,0,0,0,0,0,0,0,0,0,0,0,0,0,0,0,0,0,0,0,0,0,0,0,0,0,0,0,0,0,0,0,0,0,0,0,0,0,0,0,0,0,0],"id":6,"left_children":[1,3,5,7,9,11,13,15,17,19,21,23,25,27,29,31,33,35,37,39,41,43,45,47,49,51,53,55,57,59,61,63,65,67,-1,69,71,73,75,77,79,81,83,85,87,89,91,93,95,97,99,101,103,105,107,109,111,113,115,117,119,121,123,-1,-1,-1,-1,-1,-1,-1,-1,-1,-1,-1,-1,-1,-1,-1,-1,-1,-1,-1,-1,-1,-1,-1,-1,-1,-1,-1,-1,-1,-1,-1,-1,-1,-1,-1,-1,-1,-1,-1,-1,-1,-1,-1,-1,-1,-1,-1,-1,-1,-1,-1,-1,-1,-1,-1,-1,-1,-1,-1,-1,-1,-1],"loss_changes":[4.4534062E3,3.555703E2,2.2701382E3,1.6229907E2,6.258203E1,2.3523005E3,1.4430664E2,1.01013916E2,2.2232023E1,5.067383E1,2.3858398E1,8.5017456E2,3.344265E2,1.115625E2,8.891357E0,2.3988525E1,3.1629807E1,5.407094E0,1.4648523E1,7.281616E0,1.8059097E1,8.986328E0,9.582764E0,7.703223E1,4.2486002E2,1.824318E2,1.0934827E2,5.3729248E1,4.7680122E1,7.2143555E0,9.225433E0,6.2730103E0,3.9299072E1,1.9054657E1,0E0,7.058177E0,8.6755295E0,6.247612E0,6.9397917E0,3.60437E0,8.395538E0,1.2083359E0,2.3408333E1,3.5517578E0,1.0814835E1,3.4476318E0,6.166504E0,8.742432E0,4.0829773E1,1.2699341E1,5.7781445E2,7.50405E1,1.308014E2,9.062637E1,9.839307E1,3.028418E1,8.827545E0,1.49339905E1,6.055972E1,4.8308105E0,3.6949186E0,9.882385E0,3.3921814E0,0E0,0E0,0E0,0E0,0E0,0E0,0E0,0E0,0E0,0E0,0E0,0E0,0E0,0E0,0E0,0E0,0E0,0E0,0E0,0E0,0E0,0E0,0E0,0E0,0E0,0E0,0E0,0E0,0E0,0E0,0E0,0E0,0E0,0E0,0E0,0E0,0E0,0E0,0E0,0E0,0E0,0E0,0E0,0E0,0E0,0E0,0E0,0E0,0E0,0E0,0E0,0E0,0E0,0E0,0E0,0E0,0E0,0E0,0E0,0E0,0E0,0E0],"parents":[2147483647,0,0,1,1,2,2,3,3,4,4,5,5,6,6,7,7,8,8,9,9,10,10,11,11,12,12,13,13,14,14,15,15,16,16,17,17,18,18,19,19,20,20,21,21,22,22,23,23,24,24,25,25,26,26,27,27,28,28,29,29,30,30,31,31,32,32,33,33,35,35,36,36,37,37,38,38,39,39,40,40,41,41,42,42,43,43,44,44,45,45,46,46,47,47,48,48,49,49,50,50,51,51,52,52,53,53,54,54,55,55,56,56,57,57,58,58,59,59,60,60,61,61,62,62],"right_children":[2,4,6,8,10,12,14,16,18,20,22,24,26,28,30,32,34,36,38,40,42,44,46,48,50,52,54,56,58,60,62,64,66,68,-1,70,72,74,76,78,80,82,84,86,88,90,92,94,96,98,100,102,104,106,108,110,112,114,116,118,120,122,124,-1,-1,-1,-1,-1,-1,-1,-1,-1,-1,-1,-1,-1,-1,-1,-1,-1,-1,-1,-1,-1,-1,-1,-1,-1,-1,-1,-1,-1,-1,-1,-1,-1,-1,-1,-1,-1,-1,-1,-1,-1,-1,-1,-1,-1,-1,-1,-1,-1,-1,-1,-1,-1,-1,-1,-1,-1,-1,-1,-1,-1,-1],"split_conditions":[4.9947735E1,1.4385839E-1,3.31813E-1,1E0,8.728131E-1,1E0,6.4196765E-1,1.7992552E-1,4.0912324E-1,2.4364014E1,1.14261005E-2,1.0748387E-1,7.050764E-1,1E0,1E0,-1.0278376E-1,2.3249588E1,1.1355011E-1,1.9442035E-1,2.3262353E0,-4.3695685E-1,1E0,4.0039156E-2,7.879042E-2,-2.3307581E-1,9.58608E-1,1.6291422E2,1.3953482E-1,1.6761192E2,6.6702574E-1,8.346541E-1,7.380523E-1,9.476149E-2,1.1046536E-1,-1.6457126E-1,4.975347E-1,1.6913176E-1,1.895525E-1,3.7197834E-1,9.721307E-2,2.6152733E-1,-1.024952E0,-9.7435087E-1,2.0534143E1,1.08946E-1,9.818698E-1,1E0,1.1921343E-1,1.5090119E1,-4.2476574E-1,2.1810561E-1,-3.710473E0,1.5292911E2,-1.3248343E0,4.9225518E-1,1.4452596E2,6.0556656E-1,1.070608E0,9.4426686E-1,1.1813655E-1,8.57944E-1,1.5796112E2,9.6085954E-1,-1.2027959E-1,-1.6819832E-1,-1.3577764E-1,-5.1163223E-2,-8.6089626E-2,-2.9013706E-2,-1.2075577E-1,-3.3237063E-3,8.877264E-2,-1.5053384E-1,2.0951276E-1,-7.3988244E-2,-1.7051318E-1,6.72181E-2,-1.6942298E-1,-1.3171355E-1,-1.458565E-1,2.2822132E-2,-1.8289724E-1,-1.4538215E-1,-1.187399E-1,-3.8958497E-2,-1.8106492E-1,-1.7159775E-1,-6.9174275E-2,-1.6379237E-1,-1.5337138E-1,-1.7519474E-1,-1.3583256E-1,-4.0136434E-2,-1.3845025E-1,-1.14364244E-1,-8.684471E-2,-1.7991659E-1,-1.6321206E-1,-1.1653335E-1,1.4912925E-2,-7.14828E-2,1.3787949E-2,1.1737448E-1,-7.563617E-2,7.092716E-2,3.816936E-2,1.5842535E-1,9.914789E-2,2.375186E-1,-1.6289705E-1,-1.234884E-1,-1.12484016E-1,-5.2946564E-2,-1.1396424E-1,-3.4062855E-2,-1.09391816E-1,6.439132E-2,-1.7953935E-1,-1.5058616E-1,2.4016708E-1,-6.089096E-2,-1.5232983E-1,-7.9583645E-2,1.514519E-1,-1.755715E-1],"split_indices":[4,4,2,7,1,7,5,3,3,4,3,2,0,7,7,3,0,2,2,0,3,7,6,2,3,1,4,6,4,6,5,1,2,2,0,0,2,6,0,3,3,6,6,4,2,1,7,3,0,3,2,6,4,6,3,4,0,0,3,6,1,4,3,0,0,0,0,0,0,0,0,0,0,0,0,0,0,0,0,0,0,0,0,0,0,0,0,0,0,0,0,0,0,0,0,0,0,0,0,0,0,0,0,0,0,0,0,0,0,0,0,0,0,0,0,0,0,0,0,0,0,0,0,0,0],"split_type":[0,0,0,0,0,0,0,0,0,0,0,0,0,0,0,0,0,0,0,0,0,0,0,0,0,0,0,0,0,0,0,0,0,0,0,0,0,0,0,0,0,0,0,0,0,0,0,0,0,0,0,0,0,0,0,0,0,0,0,0,0,0,0,0,0,0,0,0,0,0,0,0,0,0,0,0,0,0,0,0,0,0,0,0,0,0,0,0,0,0,0,0,0,0,0,0,0,0,0,0,0,0,0,0,0,0,0,0,0,0,0,0,0,0,0,0,0,0,0,0,0,0,0,0,0],"sum_hessian":[1.4485967E5,6.604468E4,7.8815E4,1.3088577E4,5.29561E4,5.944274E4,1.9372264E4,1.24361E4,6.5247766E2,8.0867754E3,4.4869324E4,4.8748984E4,1.0693754E4,1.0116088E4,9.256177E3,1.0048823E4,2.3872764E3,4.9820633E2,1.542713E2,6.223925E3,1.8628507E3,4.0979098E4,3.8902273E3,1.6477473E4,3.2271512E4,5.8408984E3,4.852856E3,8.187132E3,1.9289557E3,7.7248887E3,1.5312876E3,2.656317E3,7.392506E3,2.108107E3,2.7916934E2,3.8749838E2,1.1070797E2,1.0508773E2,4.9183575E1,4.74821E3,1.4757152E3,4.6523547E2,1.3976152E3,4.030174E4,6.773591E2,2.8349165E3,1.0553108E3,7.647745E3,8.829728E3,2.4170195E3,2.9854492E4,3.583088E3,2.2578103E3,2.3908564E3,2.4619998E3,7.1520513E3,1.0350808E3,1.1495464E3,7.794093E2,7.704579E3,2.0309912E1,7.536965E2,7.7759106E2,2.878264E2,2.3684905E3,6.8584297E3,5.340762E2,1.0398077E3,1.0682993E3,5.2417297E1,3.350811E2,9.57656E1,1.49423685E1,9.8042435E1,7.0453E0,1.5145361E1,3.403821E1,4.486902E3,2.613081E2,1.4489198E3,2.679534E1,1.3072902E2,3.3450644E2,8.5622614E2,5.4138904E2,3.5893754E4,4.4079834E3,1.3883284E2,5.3852625E2,1.4800043E3,1.3549121E3,9.896655E2,6.564533E1,5.829407E3,1.8183378E3,8.382833E3,4.468948E2,1.6205184E3,7.965011E2,1.8779627E4,1.1074863E4,8.1492053E2,2.7681675E3,1.3243994E3,9.334109E2,9.130096E2,1.4778468E3,6.2032947E2,1.8416703E3,3.953696E3,3.1983552E3,3.306587E2,7.0442206E2,8.7052423E2,2.790221E2,2.818754E2,4.9753394E2,7.10223E3,6.023492E2,3.6298146E0,1.6680098E1,4.928249E2,2.608716E2,2.1517413E0,7.7543933E2],"tree_param":{"num_deleted":"0","num_feature":"8","num_nodes":"125","size_leaf_vector":"1"}},{"base_weights":[4.5729396E-1,9.241649E-1,-2.2648488E-1,9.83575E-1,6.4190817E-1,3.5167086E-1,-3.6641037E-1,1.0031738E0,1.585038E-1,6.780567E-1,7.147521E-2,-1.758424E-1,5.743319E-1,9.164928E-3,-4.9582368E-1,1.0277206E0,6.8979657E-1,-7.279558E-2,3.7297425E-1,7.157138E-1,3.7223613E-1,-1.1334485E-1,8.141206E-1,2.2334194E-2,-3.613246E-1,8.3331466E-1,1.6536085E-1,4.932726E-1,-2.568783E-1,-3.21974E-1,-5.2614325E-1,8.9414686E-1,1.0446484E0,5.437725E-1,9.3669724E-1,1.8964715E-1,-1.28687E-1,2.4428368E-1,5.638586E-1,7.69581E-1,5.103609E-1,4.8794845E-1,6.7639075E-2,6.187166E-1,-1.5763181E-1,1.0379666E0,5.486234E-1,1.3282631E-1,-1.0160566E-1,-2.89255E-1,-4.78244E-1,9.689537E-1,5.445779E-1,8.460168E-1,-2.2347853E-1,1.6505823E-1,8.0401164E-1,-1.3833976E-3,-3.6318758E-1,-9.092366E-2,-4.5586988E-1,-4.0139124E-1,-5.619294E-1,2.749342E-1,1.8602648E-1,3.1782758E-1,2.7219948E-1,1.846281E-1,4.4914838E-2,2.9395184E-1,1.7734721E-1,1.6860972E-1,3.2822236E-2,1.7567788E-1,-4.484722E-2,1.7548394E-1,5.693006E-2,1.3533282E-1,2.2338776E-1,2.4442491E-1,1.758344E-1,2.3575318E-1,7.331468E-2,1.9959031E-1,4.4911914E-2,4.752288E-2,-4.350791E-2,2.1083346E-1,-1.11790866E-1,-1.2379224E-2,-9.1194436E-2,7.966444E-2,3.2843745E-1,2.059076E-1,8.566514E-3,5.4604866E-2,-3.2187246E-2,-4.4721745E-2,4.772189E-2,-1.059915E-1,-3.0867783E-2,-1.256066E-1,-1.6616485E-1,2.160823E-1,3.1575546E-1,2.0413403E-1,7.139023E-2,1.4715256E-1,3.3820698E-1,-3.2837544E-2,-1.2732248E-1,2.0566907E-2,1.5515232E-1,1.7994058E-1,3.2199576E-1,2.635027E-2,-5.7719436E-2,-3.2779276E-2,-1.3021241E-1,-7.4730136E-2,1.0686567E-1,-3.9290726E-2,-1.4518267E-1,-1.2699363E-1,-2.3359211E-2,-1.7191662E-1,-1.3222006E-1],"categories":[],"categories_nodes":[],"categories_segments":[],"categories_sizes":[],"default_left":[0,0,0,0,0,0,0,0,0,0,0,0,0,0,0,0,0,0,0,0,0,0,0,0,0,0,0,0,0,0,0,0,0,0,0,0,0,0,0,0,0,0,0,0,0,0,0,0,0,0,0,0,0,0,0,0,0,0,0,0,0,0,0,0,0,0,0,0,0,0,0,0,0,0,0,0,0,0,0,0,0,0,0,0,0,0,0,0,0,0,0,0,0,0,0,0,0,0,0,0,0,0,0,0,0,0,0,0,0,0,0,0,0,0,0,0,0,0,0,0,0,0,0,0,0,0,0],"id":7,"left_children":[1,3,5,7,9,11,13,15,17,19,21,23,25,27,29,31,33,35,37,39,41,43,45,47,49,51,53,55,57,59,61,63,65,67,69,71,73,75,77,79,81,83,85,87,89,91,93,95,97,99,101,103,105,107,109,111,113,115,117,119,121,123,125,-1,-1,-1,-1,-1,-1,-1,-1,-1,-1,-1,-1,-1,-1,-1,-1,-1,-1,-1,-1,-1,-1,-1,-1,-1,-1,-1,-1,-1,-1,-1,-1,-1,-1,-1,-1,-1,-1,-1,-1,-1,-1,-1,-1,-1,-1,-1,-1,-1,-1,-1,-1,-1,-1,-1,-1,-1,-1,-1,-1,-1,-1,-1,-1],"loss_changes":[5.63582E4,1.7586016E3,5.794994E3,1.4012656E3,3.7616797E2,1.6396273E3,2.8031938E3,6.504922E2,9.984113E1,1.973247E2,1.4948193E2,1.5232837E2,1.0395093E3,1.9038196E3,2.259248E2,1.7657812E2,2.2130347E2,1.4236601E1,2.5512909E1,1.6858057E2,6.633966E1,2.8381104E1,1.2327759E1,2.7461235E1,1.7898499E1,2.3483496E2,1.00778674E3,5.3454016E2,2.591067E2,1.9709833E2,1.6282324E2,5.3438965E1,1.4039844E2,1.0913281E2,3.3484375E1,5.033647E0,1.1966166E1,1.1505112E1,8.218658E0,9.978662E1,2.3261487E2,8.175711E1,1.0053125E1,4.42601E0,1.4010639E1,4.828079E0,7.2432823E0,1.2540413E1,1.1719645E1,1.580085E1,3.4382782E0,8.4184814E1,7.995184E1,1.3790784E2,5.548065E1,8.664025E1,1.4743958E2,4.7802452E1,1.21151794E2,1.6553601E2,3.6731018E1,5.7729736E1,3.801465E1,0E0,0E0,0E0,0E0,0E0,0E0,0E0,0E0,0E0,0E0,0E0,0E0,0E0,0E0,0E0,0E0,0E0,0E0,0E0,0E0,0E0,0E0,0E0,0E0,0E0,0E0,0E0,0E0,0E0,0E0,0E0,0E0,0E0,0E0,0E0,0E0,0E0,0E0,0E0,0E0,0E0,0E0,0E0,0E0,0E0,0E0,0E0,0E0,0E0,0E0,0E0,0E0,0E0,0E0,0E0,0E0,0E0,0E0,0E0,0E0,0E0,0E0,0E0,0E0],"parents":[2147483647,0,0,1,1,2,2,3,3,4,4,5,5,6,6,7,7,8,8,9,9,10,10,11,11,12,12,13,13,14,14,15,15,16,16,17,17,18,18,19,19,20,20,21,21,22,22,23,23,24,24,25,25,26,26,27,27,28,28,29,29,30,30,31,31,32,32,33,33,34,34,35,35,36,36,37,37,38,38,39,39,40,40,41,41,42,42,43,43,44,44,45,45,46,46,47,47,48,48,49,49,50,50,51,51,52,52,53,53,54,54,55,55,56,56,57,57,58,58,59,59,60,60,61,61,62,62],"right_children":[2,4,6,8,10,12,14,16,18,20,22,24,26,28,30,32,34,36,38,40,42,44,46,48,50,52,54,56,58,60,62,64,66,68,70,72,74,76,78,80,82,84,86,88,90,92,94,96,98,100,102,104,106,108,110,112,114,116,118,120,122,124,126,-1,-1,-1,-1,-1,-1,-1,-1,-1,-1,-1,-1,-1,-1,-1,-1,-1,-1,-1,-1,-1,-1,-1,-1,-1,-1,-1,-1,-1,-1,-1,-1,-1,-1,-1,-1,-1,-1,-1,-1,-1,-1,-1,-1,-1,-1,-1,-1,-1,-1,-1,-1,-1,-1,-1,-1,-1,-1,-1,-1,-1,-1,-1,-1],"split_conditions":[9.721307E-2,4.9947735E1,8.045352E1,1.5090119E1,1E0,1.4385839E-1,-1.2604874E0,2.059383E-2,1.344118E-1,3.5289016E0,9.6292466E-1,2.3186497E-1,5.921385E1,1.5955736E2,-4.453218E-1,8.1020516E-1,1.4385839E-1,2.3249588E1,1.9948544E-1,-8.045278E-1,2.5368595E-2,-4.730479E-1,8.4584145E1,1.4530957E-1,5.394769E-1,-7.48222E-3,-6.3202834E-1,9.3439615E-1,2.3186497E-1,1.5126613E2,1.9124512E-1,4.4651656E0,2.3025398E1,3.4039145E0,2.653845E0,1.0668577E0,8.00571E-2,1.8486496E1,1.1345381E-1,4.3926947E-2,-2.1283533E-1,9.245371E0,5.3964586E0,2.512485E0,-3.012913E0,-1.4780948E2,-2.2388887E0,3.653587E0,1.0536794E-1,1.2296903E-1,7.8130543E-1,1.5836778E-1,3.927593E1,9.395455E-1,9.169046E-1,7.344603E-1,1E0,2.1238487E0,1.8190881E2,9.7333264E-1,3.2549953E-1,9.528725E-1,1.895525E-1,2.749342E-1,1.8602648E-1,3.1782758E-1,2.7219948E-1,1.846281E-1,4.4914838E-2,2.9395184E-1,1.7734721E-1,1.6860972E-1,3.2822236E-2,1.7567788E-1,-4.484722E-2,1.7548394E-1,5.693006E-2,1.3533282E-1,2.2338776E-1,2.4442491E-1,1.758344E-1,2.3575318E-1,7.331468E-2,1.9959031E-1,4.4911914E-2,4.752288E-2,-4.350791E-2,2.1083346E-1,-1.11790866E-1,-1.2379224E-2,-9.1194436E-2,7.966444E-2,3.2843745E-1,2.059076E-1,8.566514E-3,5.4604866E-2,-3.2187246E-2,-4.4721745E-2,4.772189E-2,-1.059915E-1,-3.0867783E-2,-1.256066E-1,-1.6616485E-1,2.160823E-1,3.1575546E-1,2.0413403E-1,7.139023E-2,1.4715256E-1,3.3820698E-1,-3.2837544E-2,-1.2732248E-1,2.0566907E-2,1.5515232E-1,1.7994058E-1,3.2199576E-1,2.635027E-2,-5.7719436E-2,-3.2779276E-2,-1.3021241E-1,-7.4730136E-2,1.0686567E-1,-3.9290726E-2,-1.4518267E-1,-1.2699363E-1,-2.3359211E-2,-1.7191662E-1,-1.3222006E-1],"split_indices":[3,4,4,0,7,4,6,3,2,0,1,3,4,4,6,1,4,0,2,6,3,3,4,3,3,6,6,1,3,4,2,0,4,0,0,4,2,0,6,3,3,0,0,0,6,6,6,0,2,2,3,2,4,1,3,3,7,0,4,1,3,1,6,0,0,0,0,0,0,0,0,0,0,0,0,0,0,0,0,0,0,0,0,0,0,0,0,0,0,0,0,0,0,0,0,0,0,0,0,0,0,0,0,0,0,0,0,0,0,0,0,0,0,0,0,0,0,0,0,0,0,0,0,0,0,0,0],"split_type":[0,0,0,0,0,0,0,0,0,0,0,0,0,0,0,0,0,0,0,0,0,0,0,0,0,0,0,0,0,0,0,0,0,0,0,0,0,0,0,0,0,0,0,0,0,0,0,0,0,0,0,0,0,0,0,0,0,0,0,0,0,0,0,0,0,0,0,0,0,0,0,0,0,0,0,0,0,0,0,0,0,0,0,0,0,0,0,0,0,0,0,0,0,0,0,0,0,0,0,0,0,0,0,0,0,0,0,0,0,0,0,0,0,0,0,0,0,0,0,0,0,0,0,0,0,0,0],"sum_hessian":[1.7653897E5,1.04908875E5,7.16301E4,8.666494E4,1.8243936E4,1.3957565E4,5.7672535E4,8.465384E4,2.0110997E3,1.7156531E4,1.0874036E3,4.142841E3,9.814725E3,1.4779964E4,4.289257E4,7.850251E4,6.1513335E3,9.6790564E2,1.0431941E3,1.5274387E4,1.8821453E3,8.713905E2,2.160131E2,2.003307E3,2.1395334E3,6.0086694E3,3.8060557E3,5.2414546E3,9.538509E3,6.3713643E3,3.6521207E4,8.83573E3,6.966677E4,3.8673035E3,2.28403E3,1.6951955E2,7.983861E2,6.2446893E2,4.1872516E2,1.2098114E4,3.1762722E3,1.3635493E3,5.1859595E2,4.8968742E1,8.2242175E2,1.15621124E2,1.0039198E2,1.0590735E3,9.442336E2,1.3257869E3,8.137467E2,4.086575E3,1.9220941E3,1.3833507E3,2.422705E3,2.5497952E3,2.6916592E3,2.8030076E3,6.7355015E3,2.338219E3,4.0331453E3,8.143797E3,2.837741E4,8.1686914E3,6.670388E2,6.2892137E4,6.774639E3,3.2718037E3,5.954999E2,2.0288796E3,2.5515051E2,2.8987368E1,1.4053218E2,2.1826925E1,7.7655914E2,8.4806076E1,5.3966284E2,2.6003204E2,1.5869315E2,9.705277E3,2.3928372E3,1.5592991E3,1.6169731E3,8.938857E2,4.6966364E2,3.6364078E2,1.5495515E2,4.5409355E1,3.5593865E0,4.5885336E2,3.6356842E2,8.31183E0,1.07309296E2,7.9118454E1,2.1273535E1,8.792037E2,1.7986983E2,7.991457E2,1.4508786E2,9.8601306E2,3.3977377E2,4.589336E2,3.5481314E2,1.0302552E3,3.0563198E3,1.3310461E3,5.910481E2,6.123333E2,7.7101733E2,1.5466078E3,8.7609717E2,2.0022484E3,5.4754675E2,1.5326859E3,1.1589734E3,1.9109818E3,8.920259E2,1.4699799E3,5.2655215E3,1.7275431E3,6.106759E2,3.2121112E2,3.711934E3,7.626733E3,5.170639E2,2.598794E4,2.3894692E3],"tree_param":{"num_deleted":"0","num_feature":"8","num_nodes":"127","size_leaf_vector":"1"}},{"base_weights":[-1.6756512E-1,1.6146366E-2,-2.5720498E-1,-1.8837105E-1,1.7153102E-1,-2.857903E-1,2.3944E-1,-2.428944E-1,4.6036464E-1,2.8453976E-1,-2.0195158E-2,-3.3469743E-1,-1.5688297E-1,5.364785E-1,4.459507E-2,-2.876297E-1,-1.2381199E-1,5.939987E-1,2.6780123E-1,9.0822406E-2,4.251437E-1,-7.103067E-2,2.8385973E-1,-3.0460677E-1,-4.7340736E-1,-1.0210912E-1,-3.7243062E-1,6.5831155E-1,3.8744584E-1,1.0117843E-1,-3.5743502E-1,-3.1697935E-1,-1.4045459E-1,-2.1053778E-1,1.0537249E-2,6.54822E-2,6.6038793E-1,4.266366E-2,3.400609E-1,-5.525556E-4,3.084367E-1,2.3558335E-1,4.9437523E-1,-2.2551173E-1,1.5328924E-2,2.0632462E-1,4.6465907E-1,-2.0301345E-1,-3.4665975E-1,-4.1417176E-1,-5.5680513E-1,-7.559651E-2,-4.9422404E-1,-4.0045503E-1,-1.7152297E-1,4.6309352E-1,7.088344E-1,5.128885E-1,2.8295937E-1,-5.7402395E-2,1.8103047E-1,-4.8217776E-1,-2.0358592E-1,-4.530672E-2,-9.8940946E-2,5.0045714E-2,-6.5781906E-2,-7.895882E-2,2.6386078E-2,4.9539253E-2,-3.9119847E-2,-4.6177153E-2,1.0791977E-1,2.2034255E-1,1.5907085E-1,3.289696E-1,-5.212931E-3,1.3555844E-1,5.0746936E-2,-2.3315325E-2,5.204065E-2,1.8535009E-1,7.6534376E-2,1.807312E-2,1.5434492E-1,1.8380451E-1,1.20062225E-1,9.961497E-3,-8.717688E-2,3.908128E-2,-2.9992903E-2,5.2133165E-2,1.9270237E-1,7.9183124E-2,1.859808E-1,-8.216721E-2,-3.6108978E-2,-1.0740672E-1,-5.1188603E-2,6.654973E-2,-1.2622541E-1,-8.2410365E-2,-1.6788244E-1,6.1550164E-3,-5.326355E-2,-3.978406E-2,-1.5284312E-1,1.1906707E-1,-1.2225283E-1,-8.222105E-3,-8.481104E-2,2.0642541E-1,5.639996E-2,2.0376556E-1,2.9426983E-1,1.8340772E-1,7.393008E-2,1.0439994E-2,1.2445856E-1,4.54213E-2,-5.625199E-2,1.4403014E-1,4.2777788E-2,8.552067E-2,-1.530589E-1,-8.561727E-2,5.3858787E-2],"categories":[],"categories_nodes":[],"categories_segments":[],"categories_sizes":[],"default_left":[0,0,0,0,0,0,0,0,0,0,0,0,0,0,0,0,0,0,0,0,0,0,0,0,0,0,0,0,0,0,0,0,0,0,0,0,0,0,0,0,0,0,0,0,0,0,0,0,0,0,0,0,0,0,0,0,0,0,0,0,0,0,0,0,0,0,0,0,0,0,0,0,0,0,0,0,0,0,0,0,0,0,0,0,0,0,0,0,0,0,0,0,0,0,0,0,0,0,0,0,0,0,0,0,0,0,0,0,0,0,0,0,0,0,0,0,0,0,0,0,0,0,0,0,0,0,0],"id":8,"left_children":[1,3,5,7,9,11,13,15,17,19,21,23,25,27,29,31,33,35,37,39,41,43,45,47,49,51,53,55,57,59,61,63,65,67,69,71,73,75,77,79,81,83,85,87,89,91,93,95,97,99,101,103,105,107,109,111,113,115,117,119,121,123,125,-1,-1,-1,-1,-1,-1,-1,-1,-1,-1,-1,-1,-1,-1,-1,-1,-1,-1,-1,-1,-1,-1,-1,-1,-1,-1,-1,-1,-1,-1,-1,-1,-1,-1,-1,-1,-1,-1,-1,-1,-1,-1,-1,-1,-1,-1,-1,-1,-1,-1,-1,-1,-1,-1,-1,-1,-1,-1,-1,-1,-1,-1,-1,-1],"loss_changes":[2.2796016E3,1.4426389E3,1.3208301E3,6.9336847E2,5.5893616E2,5.545532E2,2.930501E2,9.628308E1,3.8952118E1,4.420315E2,1.4790228E2,2.660376E2,2.8564868E2,3.6164E1,6.9623184E1,5.6724487E1,5.7551453E1,3.1409668E1,1.0144661E1,1.3575465E2,1.2329883E2,1.0936948E2,1.9118576E1,2.2383203E2,5.5921387E1,2.0056361E2,2.7534851E1,1.0542389E1,1.171167E1,3.3977264E1,7.149311E0,2.32677E1,5.300057E1,4.7203033E1,4.22586E1,6.5853705E0,7.2886047E0,9.692372E0,8.953636E0,6.459346E1,3.315027E1,1.2308894E2,7.648523E1,4.950276E1,6.971534E1,1.3527302E1,1.2632904E1,8.9858154E1,7.4072266E1,2.792102E1,3.576538E0,1.7711475E2,6.6718445E0,2.4358337E1,9.636471E0,1.4074177E1,6.373413E0,1.0603004E1,1.6213215E1,2.4453785E1,2.0442875E1,4.612892E0,5.4049516E0,0E0,0E0,0E0,0E0,0E0,0E0,0E0,0E0,0E0,0E0,0E0,0E0,0E0,0E0,0E0,0E0,0E0,0E0,0E0,0E0,0E0,0E0,0E0,0E0,0E0,0E0,0E0,0E0,0E0,0E0,0E0,0E0,0E0,0E0,0E0,0E0,0E0,0E0,0E0,0E0,0E0,0E0,0E0,0E0,0E0,0E0,0E0,0E0,0E0,0E0,0E0,0E0,0E0,0E0,0E0,0E0,0E0,0E0,0E0,0E0,0E0,0E0,0E0,0E0],"parents":[2147483647,0,0,1,1,2,2,3,3,4,4,5,5,6,6,7,7,8,8,9,9,10,10,11,11,12,12,13,13,14,14,15,15,16,16,17,17,18,18,19,19,20,20,21,21,22,22,23,23,24,24,25,25,26,26,27,27,28,28,29,29,30,30,31,31,32,32,33,33,34,34,35,35,36,36,37,37,38,38,39,39,40,40,41,41,42,42,43,43,44,44,45,45,46,46,47,47,48,48,49,49,50,50,51,51,52,52,53,53,54,54,55,55,56,56,57,57,58,58,59,59,60,60,61,61,62,62],"right_children":[2,4,6,8,10,12,14,16,18,20,22,24,26,28,30,32,34,36,38,40,42,44,46,48,50,52,54,56,58,60,62,64,66,68,70,72,74,76,78,80,82,84,86,88,90,92,94,96,98,100,102,104,106,108,110,112,114,116,118,120,122,124,126,-1,-1,-1,-1,-1,-1,-1,-1,-1,-1,-1,-1,-1,-1,-1,-1,-1,-1,-1,-1,-1,-1,-1,-1,-1,-1,-1,-1,-1,-1,-1,-1,-1,-1,-1,-1,-1,-1,-1,-1,-1,-1,-1,-1,-1,-1,-1,-1,-1,-1,-1,-1,-1,-1,-1,-1,-1,-1,-1,-1,-1,-1,-1,-1],"split_conditions":[8.8365924E-1,5.831623E-2,1.253554E1,9.245371E0,1.3190332E-1,1.377332E2,1.960919E-1,5.7144558E1,-3.9544782E-1,1.377332E2,8.171023E0,9.084921E-1,1E0,1.344118E-1,9.659082E-1,2.653845E0,9.602311E-2,1.0668577E0,1.8486496E1,2.5809386E0,1.6674438E-1,1.2194238E2,6.195352E1,2.8703654E-1,9.675458E-1,9.752311E-1,2.6203552E2,3.766869E1,1.3395948E1,2.9586462E1,1.495881E2,2.1345481E-1,6.2504396E-2,2.899427E0,7.289667E-1,2.9586462E1,1.1355011E-1,1.00646056E-1,1.5214562E-1,2.1797323E-1,-2.4270363E2,2.0769336E0,7.027412E-1,4.2542634E0,6.3598037E-1,3.1819353E-1,1.495881E2,8.768471E0,4.109469E0,1.181926E0,-3.6365765E-1,6.209056E-1,-4.6370897E-1,-3.8614493E-2,4.257764E-1,1.3395948E1,9.987887E-1,8.344091E1,3.766869E1,-1.7253208E-1,2.8389876E0,4.7643E1,1.1457198E2,-4.530672E-2,-9.8940946E-2,5.0045714E-2,-6.5781906E-2,-7.895882E-2,2.6386078E-2,4.9539253E-2,-3.9119847E-2,-4.6177153E-2,1.0791977E-1,2.2034255E-1,1.5907085E-1,3.289696E-1,-5.212931E-3,1.3555844E-1,5.0746936E-2,-2.3315325E-2,5.204065E-2,1.8535009E-1,7.6534376E-2,1.807312E-2,1.5434492E-1,1.8380451E-1,1.20062225E-1,9.961497E-3,-8.717688E-2,3.908128E-2,-2.9992903E-2,5.2133165E-2,1.9270237E-1,7.9183124E-2,1.859808E-1,-8.216721E-2,-3.6108978E-2,-1.0740672E-1,-5.1188603E-2,6.654973E-2,-1.2622541E-1,-8.2410365E-2,-1.6788244E-1,6.1550164E-3,-5.326355E-2,-3.978406E-2,-1.5284312E-1,1.1906707E-1,-1.2225283E-1,-8.222105E-3,-8.481104E-2,2.0642541E-1,5.639996E-2,2.0376556E-1,2.9426983E-1,1.8340772E-1,7.393008E-2,1.0439994E-2,1.2445856E-1,4.54213E-2,-5.625199E-2,1.4403014E-1,4.2777788E-2,8.552067E-2,-1.530589E-1,-8.561727E-2,5.3858787E-2],"split_indices":[1,3,0,0,2,4,2,4,6,4,0,3,7,2,3,0,2,4,0,0,3,4,0,0,3,3,4,0,4,0,4,0,2,0,0,0,2,2,2,3,6,0,1,4,0,2,4,4,0,4,6,0,6,3,0,4,1,0,0,6,4,4,0,0,0,0,0,0,0,0,0,0,0,0,0,0,0,0,0,0,0,0,0,0,0,0,0,0,0,0,0,0,0,0,0,0,0,0,0,0,0,0,0,0,0,0,0,0,0,0,0,0,0,0,0,0,0,0,0,0,0,0,0,0,0,0,0],"split_type":[0,0,0,0,0,0,0,0,0,0,0,0,0,0,0,0,0,0,0,0,0,0,0,0,0,0,0,0,0,0,0,0,0,0,0,0,0,0,0,0,0,0,0,0,0,0,0,0,0,0,0,0,0,0,0,0,0,0,0,0,0,0,0,0,0,0,0,0,0,0,0,0,0,0,0,0,0,0,0,0,0,0,0,0,0,0,0,0,0,0,0,0,0,0,0,0,0,0,0,0,0,0,0,0,0,0,0,0,0,0,0,0,0,0,0,0,0,0,0,0,0,0,0,0,0,0,0],"sum_hessian":[1.384259E5,4.5394156E4,9.303175E4,1.9598447E4,2.5795707E4,8.796897E4,5.0627876E3,1.8079566E4,1.5188812E3,1.6229251E4,9.566456E3,6.37723E4,2.4196664E4,2.0047773E3,3.05801E3,1.3141372E4,4.9381943E3,8.9540704E2,6.234742E2,6.8261523E3,9.403099E3,8.196786E3,1.3696697E3,5.2406773E4,1.1365525E4,1.9294994E4,4.9016704E3,1.1011658E3,9.0361163E2,2.681371E3,3.7663882E2,1.0955479E4,2.1858936E3,3.0006394E3,1.9375548E3,1.0014574E2,7.9526135E2,1.5187413E2,4.7160004E2,4.8082104E3,2.017942E3,2.5166785E3,6.8864204E3,2.93859E3,5.258196E3,9.600829E2,4.0958682E2,1.5343977E4,3.7062797E4,6.6489155E3,4.7166104E3,1.8074117E4,1.2208774E3,4.3007676E3,6.0090283E2,2.2848302E2,8.7268274E2,4.0885107E2,4.9476056E2,8.9809515E2,1.783276E3,2.0681587E2,1.6982297E2,7.8674347E2,1.0168735E4,4.460094E2,1.7398843E3,2.5507651E3,4.4987424E2,9.23927E2,1.0136278E3,5.764212E1,4.2503613E1,5.0382327E2,2.9143808E2,7.2553277E0,1.446188E2,2.8410385E2,1.874962E2,3.3314985E3,1.4767118E3,2.9509448E2,1.7228475E3,1.5459692E3,9.707093E2,3.0495964E3,3.836824E3,5.907111E2,2.347879E3,2.633181E3,2.6250151E3,8.94695E2,6.538789E1,1.7983145E2,2.2975539E2,8.259055E3,7.0849214E3,3.4814516E4,2.2482837E3,6.774525E1,6.58117E3,4.737703E1,4.6692334E3,9.303726E3,8.770392E3,4.9805443E1,1.171072E3,3.7232124E1,4.263535E3,2.622334E2,3.386694E2,1.248613E2,1.0362172E2,7.9016504E2,8.251767E1,2.9758258E2,1.11268486E2,1.7214787E2,3.2261267E2,3.4470615E2,5.5338904E2,2.0178383E2,1.5814922E3,6.963251E0,1.9985262E2,1.40152E2,2.9670979E1],"tree_param":{"num_deleted":"0","num_feature":"8","num_nodes":"127","size_leaf_vector":"1"}},{"base_weights":[4.674406E-3,-3.362439E-1,4.912301E-1,-5.080055E-1,-6.0430367E-2,6.0602523E-2,6.095128E-1,-5.419318E-1,-3.2895654E-1,-1.958729E-1,-8.82435E-3,-3.3292028E-1,1.17456645E-1,3.778623E-1,7.1156937E-1,-3.9068455E-1,-5.6169313E-1,-5.198901E-1,-2.7394634E-1,-1.0806202E-1,-2.4656455E-1,7.380517E-2,-5.9284564E-2,2.4080878E-1,-4.406055E-1,-4.221025E-2,2.8003857E-1,1.466302E-1,4.4008E-1,4.1352354E-2,7.3793495E-1,-3.961198E-1,9.1504264E-1,-5.694789E-1,-4.996769E-1,-5.2423704E-1,8.430824E-3,-1.2807675E-1,-3.2931432E-1,-6.579364E-2,-2.9284E-1,-4.2704102E-1,-1.8108946E-1,-1.1414208E-1,1.4306998E-1,-1.5142024E-1,-3.280791E-2,-1.0240966E-2,3.0325532E-1,-5.3322875E-1,-3.0119824E-1,-2.0962746E-1,1.539572E-1,3.4939322E-1,7.978806E-2,-6.878594E-2,2.3789215E-1,1.3092989E-1,4.8859268E-1,-3.1109402E-1,1.6176078E-1,7.720843E-1,4.2838192E-1,-1.3991214E-1,-8.970988E-2,7.5487494E-2,5.285078E-1,-1.7203313E-1,-1.5181166E-1,-1.541845E-1,-9.193448E-2,-1.5853122E-1,-6.6011995E-2,1.4167196E-1,-1.3351136E-1,-1.3381784E-2,-1.1753181E-1,-8.299911E-2,-1.1457917E-1,2.8589772E-2,-3.177643E-2,-9.309422E-2,2.4698885E-1,-1.0479821E-1,-1.3838114E-1,-6.959836E-2,-4.1849012E-3,1.1146431E-1,-1.05644666E-1,-1.3541152E-2,5.990485E-2,-1.5366064E-2,-5.36157E-2,-3.497184E-3,-6.991142E-2,1.5583089E-1,-3.6703657E-2,1.3472001E-1,5.7511203E-2,-1.21328E-1,-1.6986114E-1,-1.60017E-1,-4.424471E-3,-9.9129155E-2,-1.6134463E-2,7.517739E-2,-2.0892695E-2,1.8836142E-1,8.335176E-2,5.435631E-2,-1.9802015E-2,1.1330208E-2,-3.6680058E-2,9.361453E-2,-3.0802572E-2,6.6923924E-2,-8.062602E-2,1.9210559E-1,1.1878866E-1,1.6391239E-1,-1.3268888E-1,1.7093895E-2,1.0349282E-1,2.463505E-1,1.9368184E-1,1.4285411E-1,-1.7378977E-2],"categories":[],"categories_nodes":[],"categories_segments":[],"categories_sizes":[],"default_left":[0,0,0,0,0,0,0,0,0,0,0,0,0,0,0,0,0,0,0,0,0,0,0,0,0,0,0,0,0,0,0,0,0,0,0,0,0,0,0,0,0,0,0,0,0,0,0,0,0,0,0,0,0,0,0,0,0,0,0,0,0,0,0,0,0,0,0,0,0,0,0,0,0,0,0,0,0,0,0,0,0,0,0,0,0,0,0,0,0,0,0,0,0,0,0,0,0,0,0,0,0,0,0,0,0,0,0,0,0,0,0,0,0,0,0,0,0,0,0,0,0,0,0,0,0,0,0],"id":9,"left_children":[1,3,5,7,9,11,13,15,17,19,21,23,25,27,29,31,33,35,37,39,41,43,45,47,49,51,53,55,57,59,61,63,65,67,69,71,73,75,77,79,81,83,85,87,89,91,93,95,97,99,101,103,105,107,109,111,113,115,117,119,121,123,125,-1,-1,-1,-1,-1,-1,-1,-1,-1,-1,-1,-1,-1,-1,-1,-1,-1,-1,-1,-1,-1,-1,-1,-1,-1,-1,-1,-1,-1,-1,-1,-1,-1,-1,-1,-1,-1,-1,-1,-1,-1,-1,-1,-1,-1,-1,-1,-1,-1,-1,-1,-1,-1,-1,-1,-1,-1,-1,-1,-1,-1,-1,-1,-1],"loss_changes":[2.4739826E4,4.1546123E3,3.12988E3,3.2810547E2,2.352443E2,2.9631604E2,1.1394121E3,1.3557129E2,9.0306335E1,4.1306183E1,1.0162235E2,1.0340192E2,3.0039435E2,2.1206909E2,5.912793E2,3.7645508E1,1.9115234E1,4.425354E0,5.3969086E1,2.6537945E1,6.947958E1,1.20314865E2,3.69084E1,4.1554565E0,1.8020874E1,1.917932E2,7.960089E1,6.1506256E1,1.7418433E2,5.384518E1,3.4001758E2,3.5548584E1,1.1958292E1,8.688477E0,1.2223999E1,2.3232422E0,3.7211702E0,4.051792E1,1.3321411E1,1.7906929E1,1.25959015E1,4.00531E0,3.6761383E1,2.8785632E2,7.195987E1,9.229347E0,4.9781395E1,3.253818E0,3.3644466E0,3.358612E0,3.752976E1,5.9300186E1,5.812358E1,8.467743E1,2.1835644E1,5.3130984E0,5.5523552E1,5.815129E1,1.4091284E2,3.6594597E1,1.813145E1,1.7947852E2,7.443866E1,0E0,0E0,0E0,0E0,0E0,0E0,0E0,0E0,0E0,0E0,0E0,0E0,0E0,0E0,0E0,0E0,0E0,0E0,0E0,0E0,0E0,0E0,0E0,0E0,0E0,0E0,0E0,0E0,0E0,0E0,0E0,0E0,0E0,0E0,0E0,0E0,0E0,0E0,0E0,0E0,0E0,0E0,0E0,0E0,0E0,0E0,0E0,0E0,0E0,0E0,0E0,0E0,0E0,0E0,0E0,0E0,0E0,0E0,0E0,0E0,0E0,0E0,0E0,0E0],"parents":[2147483647,0,0,1,1,2,2,3,3,4,4,5,5,6,6,7,7,8,8,9,9,10,10,11,11,12,12,13,13,14,14,15,15,16,16,17,17,18,18,19,19,20,20,21,21,22,22,23,23,24,24,25,25,26,26,27,27,28,28,29,29,30,30,31,31,32,32,33,33,34,34,35,35,36,36,37,37,38,38,39,39,40,40,41,41,42,42,43,43,44,44,45,45,46,46,47,47,48,48,49,49,50,50,51,51,52,52,53,53,54,54,55,55,56,56,57,57,58,58,59,59,60,60,61,61,62,62],"right_children":[2,4,6,8,10,12,14,16,18,20,22,24,26,28,30,32,34,36,38,40,42,44,46,48,50,52,54,56,58,60,62,64,66,68,70,72,74,76,78,80,82,84,86,88,90,92,94,96,98,100,102,104,106,108,110,112,114,116,118,120,122,124,126,-1,-1,-1,-1,-1,-1,-1,-1,-1,-1,-1,-1,-1,-1,-1,-1,-1,-1,-1,-1,-1,-1,-1,-1,-1,-1,-1,-1,-1,-1,-1,-1,-1,-1,-1,-1,-1,-1,-1,-1,-1,-1,-1,-1,-1,-1,-1,-1,-1,-1,-1,-1,-1,-1,-1,-1,-1,-1,-1,-1,-1,-1,-1,-1],"split_conditions":[6.6565305E-1,2.059383E-2,-3.3258927E-1,5.474147E1,1.10446036E-1,8.4584145E1,2.8710636E-1,1.4385839E-1,-3.3002883E-1,1.4385839E-1,6.6635555E-1,1.4385839E-1,-1.024952E0,1.8969867E-1,5.221686E1,1.5604285E2,-1.1787932E-1,3.517759E-1,5.832391E-1,8.554933E-1,5.921385E1,8.4584145E1,6.964992E-1,1.6913176E-1,-7.8139985E-1,1.8640965E2,1E0,7.864002E-1,8.705196E1,-7.48222E-3,1.3953482E-1,-5.5960722E-2,1.4063957E-1,3.5633507E1,6.118432E-2,1.1457198E2,2.2030681E-1,1.1901872E-1,1.3007758E2,7.713304E-1,1.06000395E1,6.2504396E-2,-3.012913E0,1.4385839E-1,7.762916E-1,1.4385839E-1,9.689072E-1,6.7824584E-1,7.7841175E-1,9.407449E-1,5.921385E1,-2.008468E0,1E0,1.2194238E2,7.377641E-1,1.427912E2,1E0,1E0,1.2718209E2,1.4385839E-1,2.0534143E1,1.6291422E2,3.659457E-1,-1.3991214E-1,-8.970988E-2,7.5487494E-2,5.285078E-1,-1.7203313E-1,-1.5181166E-1,-1.541845E-1,-9.193448E-2,-1.5853122E-1,-6.6011995E-2,1.4167196E-1,-1.3351136E-1,-1.3381784E-2,-1.1753181E-1,-8.299911E-2,-1.1457917E-1,2.8589772E-2,-3.177643E-2,-9.309422E-2,2.4698885E-1,-1.0479821E-1,-1.3838114E-1,-6.959836E-2,-4.1849012E-3,1.1146431E-1,-1.05644666E-1,-1.3541152E-2,5.990485E-2,-1.5366064E-2,-5.36157E-2,-3.497184E-3,-6.991142E-2,1.5583089E-1,-3.6703657E-2,1.3472001E-1,5.7511203E-2,-1.21328E-1,-1.6986114E-1,-1.60017E-1,-4.424471E-3,-9.9129155E-2,-1.6134463E-2,7.517739E-2,-2.0892695E-2,1.8836142E-1,8.335176E-2,5.435631E-2,-1.9802015E-2,1.1330208E-2,-3.6680058E-2,9.361453E-2,-3.0802572E-2,6.6923924E-2,-8.062602E-2,1.9210559E-1,1.1878866E-1,1.6391239E-1,-1.3268888E-1,1.7093895E-2,1.0349282E-1,2.463505E-1,1.9368184E-1,1.4285411E-1,-1.7378977E-2],"split_indices":[3,3,6,4,3,4,2,4,3,4,0,4,6,2,4,0,3,2,0,1,4,4,1,2,6,4,7,1,4,6,6,3,2,4,6,0,6,2,4,0,0,2,6,4,1,4,1,3,0,1,4,6,7,4,0,4,7,7,4,4,4,4,6,0,0,0,0,0,0,0,0,0,0,0,0,0,0,0,0,0,0,0,0,0,0,0,0,0,0,0,0,0,0,0,0,0,0,0,0,0,0,0,0,0,0,0,0,0,0,0,0,0,0,0,0,0,0,0,0,0,0,0,0,0,0,0,0],"split_type":[0,0,0,0,0,0,0,0,0,0,0,0,0,0,0,0,0,0,0,0,0,0,0,0,0,0,0,0,0,0,0,0,0,0,0,0,0,0,0,0,0,0,0,0,0,0,0,0,0,0,0,0,0,0,0,0,0,0,0,0,0,0,0,0,0,0,0,0,0,0,0,0,0,0,0,0,0,0,0,0,0,0,0,0,0,0,0,0,0,0,0,0,0,0,0,0,0,0,0,0,0,0,0,0,0,0,0,0,0,0,0,0,0,0,0,0,0,0,0,0,0,0,0,0,0,0,0],"sum_hessian":[1.4914475E5,8.769748E4,6.1447277E4,5.404214E4,3.3655336E4,1.3241379E4,4.82059E4,4.543168E4,8.610461E3,9.284613E3,2.437072E4,1.6709359E3,1.1570443E4,1.474409E4,3.346181E4,5.252367E3,4.0179312E4,1.9240106E3,6.68645E3,3.3992964E3,5.8853174E3,9.239845E3,1.5130876E4,2.6386588E2,1.40707E3,5.8379277E3,5.7325156E3,3.1267773E3,1.16173125E4,1.2666251E3,3.2195184E4,5.231288E3,2.1079332E1,3.569039E4,4.488924E3,1.9083171E3,1.5693409E1,1.8406046E3,4.845845E3,2.7675654E3,6.3173083E2,1.5652681E3,4.3200493E3,2.4880298E3,6.7518154E3,3.3764624E3,1.1754414E4,5.2726986E1,2.111389E2,8.436906E2,5.6337933E2,3.1497422E3,2.6881855E3,4.2573003E3,1.4752153E3,9.305467E2,2.1962307E3,1.5762511E3,1.0041061E4,3.22132E2,9.4449316E2,2.899501E4,3.200174E3,3.0328525E3,2.1984353E3,1.2545857E1,8.533476E0,3.3583473E4,2.1069155E3,4.178639E3,3.1028464E2,1.8815991E3,2.6718088E1,7.737786E0,7.9556236E0,1.3989481E3,4.416565E2,2.4252588E3,2.4205867E3,5.516385E2,2.215927E3,6.2270386E2,9.026985E0,4.820461E2,1.0832219E3,3.311187E3,1.0088623E3,8.1807E2,1.6699598E3,1.5613553E3,5.19046E3,7.235503E2,2.652912E3,1.0632358E4,1.1220548E3,8.575504E0,4.415148E1,9.0204636E1,1.20934265E2,1.7467325E2,6.690174E2,3.106828E2,2.5269655E2,1.7737275E3,1.3760146E3,1.8769111E3,8.112744E2,8.6869324E2,3.388607E3,8.699359E2,6.052794E2,3.110722E2,6.194745E2,1.803594E3,3.9263678E2,1.2812838E3,2.949673E2,3.8035989E3,6.2374624E3,4.2328815E1,2.7980316E2,6.016942E2,3.4279898E2,2.0884578E4,8.1104326E3,2.9138042E3,2.8636993E2],"tree_param":{"num_deleted":"0","num_feature":"8","num_nodes":"127","size_leaf_vector":"1"}},{"base_weights":[-3.0140582E-1,-4.9864438E-1,-1.5447281E-1,-3.452109E-1,-5.398621E-1,-7.812318E-2,-4.560547E-1,-3.7050995E-1,8.3604075E-2,-4.5244533E-1,-5.5593044E-1,-1.5707646E-1,2.5177342E-1,-3.7329832E-1,-5.35719E-1,-4.2803589E-1,-2.44976E-1,8.236277E-3,3.366164E-1,-4.9525058E-1,-3.0446452E-1,-5.637793E-1,-4.722652E-1,-3.2561496E-1,-8.072116E-2,1.1732472E-1,3.885259E-1,-4.2319834E-1,-1.7161869E-1,-5.522246E-1,-4.5389917E-1,-5.457965E-1,-4.0655866E-1,-3.340248E-1,-1.6688424E-1,-4.2504992E-2,1.6930062E-1,5.2132666E-1,-3.897037E-2,-5.1707757E-1,-4.2672408E-1,-4.795347E-1,-2.4617983E-1,-5.6590307E-1,-4.378593E-1,-5.1241654E-1,-3.9147848E-1,-3.980059E-1,-2.629977E-1,-1.9432144E-1,2.9788136E-2,2.0946255E-1,-7.927702E-2,4.499223E-1,1.9437714E-1,-4.59775E-1,-2.5629857E-1,-2.908741E-1,4.4557698E-2,-5.6277364E-1,-4.3604597E-1,-3.1875873E-1,-5.0824475E-1,-1.6628444E-1,-1.2918118E-1,-1.2648465E-1,-2.0107536E-2,-1.23885505E-1,-8.3768405E-2,-3.444482E-2,-1.4805475E-1,-1.046436E-1,1.1780177E-3,7.691516E-2,-1.40206E-1,1.3035633E-1,3.4964323E-1,-1.6178271E-1,5.034847E-2,-1.5712577E-1,-1.0874724E-1,-1.3137373E-1,3.5513595E-2,-1.5767373E-1,-1.1823426E-1,-1.0579104E-1,-2.7357629E-2,-1.7133325E-1,-1.6263266E-1,-1.6065641E-1,-7.6344945E-2,-1.4353698E-1,-1.6631867E-1,-1.24412894E-1,-1.6848613E-2,-1.2474358E-1,-1.0268083E-1,-7.473901E-2,-1.6701043E-1,-3.4616444E-2,-9.446215E-2,2.6161056E-2,-9.677118E-2,-2.8244993E-3,8.336638E-2,-7.757541E-2,3.9402403E-2,5.604005E-2,1.4783561E-1,1.1533257E-2,1.5074585E-1,-1.5568435E-1,-1.1623461E-1,-1.1488975E-1,-4.723959E-2,-1.147915E-1,-5.594255E-2,-3.382283E-2,1.1211445E-1,-1.7111719E-1,-1.5517558E-1,-5.0391886E-2,-1.4605547E-1,-1.2007885E-1,-1.5570862E-2,-1.0133308E-1,-1.5785694E-1],"categories":[],"categories_nodes":[],"categories_segments":[],"categories_sizes":[],"default_left":[0,0,0,0,0,0,0,0,0,0,0,0,0,0,0,0,0,0,0,0,0,0,0,0,0,0,0,0,0,0,0,0,0,0,0,0,0,0,0,0,0,0,0,0,0,0,0,0,0,0,0,0,0,0,0,0,0,0,0,0,0,0,0,0,0,0,0,0,0,0,0,0,0,0,0,0,0,0,0,0,0,0,0,0,0,0,0,0,0,0,0,0,0,0,0,0,0,0,0,0,0,0,0,0,0,0,0,0,0,0,0,0,0,0,0,0,0,0,0,0,0,0,0,0,0,0,0],"id":10,"left_children":[1,3,5,7,9,11,13,15,17,19,21,23,25,27,29,31,33,35,37,39,41,43,45,47,49,51,53,55,57,59,61,63,65,67,69,71,73,75,77,79,81,83,85,87,89,91,93,95,97,99,101,103,105,107,109,111,113,115,117,119,121,123,125,-1,-1,-1,-1,-1,-1,-1,-1,-1,-1,-1,-1,-1,-1,-1,-1,-1,-1,-1,-1,-1,-1,-1,-1,-1,-1,-1,-1,-1,-1,-1,-1,-1,-1,-1,-1,-1,-1,-1,-1,-1,-1,-1,-1,-1,-1,-1,-1,-1,-1,-1,-1,-1,-1,-1,-1,-1,-1,-1,-1,-1,-1,-1,-1],"loss_changes":[3.7732705E3,3.5134277E2,1.7180825E3,1.2775122E2,6.129004E1,1.550961E3,9.9178955E1,8.01781E1,1.251976E1,4.2974976E1,2.4035156E1,6.182743E2,2.1137848E2,7.436755E1,1.0118408E1,1.9056396E1,2.425467E1,4.1507134E0,1.0474804E1,7.675537E0,1.5495148E1,8.797852E0,1.0114319E1,6.7798706E1,4.1513022E2,1.05076965E2,6.78598E1,3.6076416E1,3.7879364E1,7.57959E0,9.345398E0,9.076233E-1,3.294873E1,6.94458E0,3.1653728E1,5.4960375E0,6.864905E0,5.1459026E0,5.3266973E0,3.9367676E0,7.864563E0,1.2918625E0,1.894226E1,3.8125E0,9.990761E0,2.758545E0,8.233826E0,6.7509766E0,3.2588562E1,1.5512305E2,3.3914923E2,5.915103E1,6.995544E1,4.8742493E1,6.5863174E1,2.0607056E1,1.3310524E1,8.998543E0,2.7125051E1,1.7332764E0,7.2171326E0,8.112812E0,2.6414032E0,0E0,0E0,0E0,0E0,0E0,0E0,0E0,0E0,0E0,0E0,0E0,0E0,0E0,0E0,0E0,0E0,0E0,0E0,0E0,0E0,0E0,0E0,0E0,0E0,0E0,0E0,0E0,0E0,0E0,0E0,0E0,0E0,0E0,0E0,0E0,0E0,0E0,0E0,0E0,0E0,0E0,0E0,0E0,0E0,0E0,0E0,0E0,0E0,0E0,0E0,0E0,0E0,0E0,0E0,0E0,0E0,0E0,0E0,0E0,0E0,0E0,0E0,0E0,0E0],"parents":[2147483647,0,0,1,1,2,2,3,3,4,4,5,5,6,6,7,7,8,8,9,9,10,10,11,11,12,12,13,13,14,14,15,15,16,16,17,17,18,18,19,19,20,20,21,21,22,22,23,23,24,24,25,25,26,26,27,27,28,28,29,29,30,30,31,31,32,32,33,33,34,34,35,35,36,36,37,37,38,38,39,39,40,40,41,41,42,42,43,43,44,44,45,45,46,46,47,47,48,48,49,49,50,50,51,51,52,52,53,53,54,54,55,55,56,56,57,57,58,58,59,59,60,60,61,61,62,62],"right_children":[2,4,6,8,10,12,14,16,18,20,22,24,26,28,30,32,34,36,38,40,42,44,46,48,50,52,54,56,58,60,62,64,66,68,70,72,74,76,78,80,82,84,86,88,90,92,94,96,98,100,102,104,106,108,110,112,114,116,118,120,122,124,126,-1,-1,-1,-1,-1,-1,-1,-1,-1,-1,-1,-1,-1,-1,-1,-1,-1,-1,-1,-1,-1,-1,-1,-1,-1,-1,-1,-1,-1,-1,-1,-1,-1,-1,-1,-1,-1,-1,-1,-1,-1,-1,-1,-1,-1,-1,-1,-1,-1,-1,-1,-1,-1,-1,-1,-1,-1,-1,-1,-1,-1,-1,-1,-1],"split_conditions":[4.7643E1,1.4385839E-1,3.517759E-1,1E0,8.728131E-1,1E0,6.4196765E-1,9.721307E-2,4.4274464E-1,2.4364014E1,1.14261005E-2,1.0675743E-1,6.3598037E-1,1E0,1E0,-2.6348847E-1,9.5376596E-2,1.1355011E-1,1.9442035E-1,2.3262353E0,-4.3695685E-1,1E0,-5.553903E-2,7.879042E-2,6.504845E-1,9.676819E-1,9.7139484E-1,1.1813655E-1,8.1309724E-1,1.1813655E-1,7.306512E-1,1.1345381E-1,1.08946E-1,1.2162721E0,1.8486496E1,4.975347E-1,1.6913176E-1,7.638917E-1,3.7197834E-1,1.1921343E-1,2.6152733E-1,-5.736387E-1,1.03304125E-1,1.5571154E0,-4.0084395E-1,9.8264533E-1,1E0,1.1921343E-1,1.5090119E1,2.1616726E-1,1.5090119E1,-3.4445193E0,1.462458E2,8.3002186E-1,1.7874686E2,1.4452596E2,8.3800614E-1,1.54605E2,1.8489296E2,1.8337357E2,9.999566E-1,1.8190881E2,-1.3046941E-1,-1.6628444E-1,-1.2918118E-1,-1.2648465E-1,-2.0107536E-2,-1.23885505E-1,-8.3768405E-2,-3.444482E-2,-1.4805475E-1,-1.046436E-1,1.1780177E-3,7.691516E-2,-1.40206E-1,1.3035633E-1,3.4964323E-1,-1.6178271E-1,5.034847E-2,-1.5712577E-1,-1.0874724E-1,-1.3137373E-1,3.5513595E-2,-1.5767373E-1,-1.1823426E-1,-1.0579104E-1,-2.7357629E-2,-1.7133325E-1,-1.6263266E-1,-1.6065641E-1,-7.6344945E-2,-1.4353698E-1,-1.6631867E-1,-1.24412894E-1,-1.6848613E-2,-1.2474358E-1,-1.0268083E-1,-7.473901E-2,-1.6701043E-1,-3.4616444E-2,-9.446215E-2,2.6161056E-2,-9.677118E-2,-2.8244993E-3,8.336638E-2,-7.757541E-2,3.9402403E-2,5.604005E-2,1.4783561E-1,1.1533257E-2,1.5074585E-1,-1.5568435E-1,-1.1623461E-1,-1.1488975E-1,-4.723959E-2,-1.147915E-1,-5.594255E-2,-3.382283E-2,1.1211445E-1,-1.7111719E-1,-1.5517558E-1,-5.0391886E-2,-1.4605547E-1,-1.2007885E-1,-1.5570862E-2,-1.0133308E-1,-1.5785694E-1],"split_indices":[4,4,2,7,1,7,5,3,3,4,3,2,0,7,7,3,2,2,2,0,3,7,6,2,0,1,1,6,0,6,5,6,2,0,0,0,2,3,0,3,3,3,2,0,3,1,7,3,0,2,0,6,4,1,4,4,0,4,4,4,1,4,6,0,0,0,0,0,0,0,0,0,0,0,0,0,0,0,0,0,0,0,0,0,0,0,0,0,0,0,0,0,0,0,0,0,0,0,0,0,0,0,0,0,0,0,0,0,0,0,0,0,0,0,0,0,0,0,0,0,0,0,0,0,0,0,0],"split_type":[0,0,0,0,0,0,0,0,0,0,0,0,0,0,0,0,0,0,0,0,0,0,0,0,0,0,0,0,0,0,0,0,0,0,0,0,0,0,0,0,0,0,0,0,0,0,0,0,0,0,0,0,0,0,0,0,0,0,0,0,0,0,0,0,0,0,0,0,0,0,0,0,0,0,0,0,0,0,0,0,0,0,0,0,0,0,0,0,0,0,0,0,0,0,0,0,0,0,0,0,0,0,0,0,0,0,0,0,0,0,0,0,0,0,0,0,0,0,0,0,0,0,0,0,0,0,0],"sum_hessian":[1.3020037E5,5.5583844E4,7.461652E4,1.1771964E4,4.381188E4,5.9543516E4,1.5073008E4,1.1116268E4,6.556964E2,6.80728E3,3.7004598E4,4.804545E4,1.1498067E4,7.395817E3,7.6771904E3,7.6213657E3,3.4949016E3,5.0600055E2,1.4969588E2,5.2781616E3,1.5291184E3,3.3825598E4,3.1790002E3,1.4979046E4,3.3066402E4,5.7988076E3,5.69926E3,5.9279995E3,1.4678171E3,6.383658E3,1.2935326E3,1.1718187E3,6.4495474E3,1.6313643E3,1.8635374E3,3.8534015E2,1.2066041E2,1.0008628E2,4.9609592E1,3.998135E3,1.2800266E3,3.8012042E2,1.148998E3,3.326112E4,5.644761E2,2.1200059E3,1.0589944E3,6.944849E3,8.0341973E3,1.6304798E4,1.6761605E4,3.9483428E3,1.8504647E3,4.328975E3,1.3702847E3,4.8609517E3,1.0670482E3,9.4574426E2,5.220729E2,5.848745E3,5.349127E2,3.729609E2,9.205717E2,1.0878754E3,8.39434E1,6.1754517E3,2.7409525E2,6.658159E2,9.655484E2,1.6084816E3,2.5505574E2,4.9865875E1,3.3547427E2,1.0666744E2,1.3992966E1,8.967612E1,1.0410167E1,1.4038555E1,3.5571037E1,3.830353E3,1.6778188E2,1.2544749E3,2.5551674E1,2.436386E2,1.3648183E2,6.8038464E2,4.686134E2,2.7269676E4,5.991446E3,3.6706512E2,1.9741098E2,1.1787906E3,9.412153E2,9.9015814E2,6.8836266E1,5.2584756E3,1.6863738E3,7.6737188E3,3.6047818E2,9.854432E3,6.450365E3,1.4413704E4,2.3479004E3,9.4056055E2,3.0077822E3,9.9940466E2,8.5106006E2,6.071628E2,3.721812E3,9.10572E2,4.5971268E2,2.6701926E3,2.1907588E3,4.664102E2,6.00638E2,5.019111E2,4.4383316E2,3.5370078E2,1.6837212E2,5.0005044E3,8.4824066E2,8.59115E1,4.4900125E2,2.853181E2,8.764279E1,8.956614E1,8.3100555E2],"tree_param":{"num_deleted":"0","num_feature":"8","num_nodes":"127","size_leaf_vector":"1"}},{"base_weights":[3.5024735E-1,6.739898E-1,-2.0595874E-1,7.297595E-1,4.8535344E-1,2.7082464E-1,-3.320385E-1,7.461021E-1,1.9302413E-1,4.5415202E-1,7.173566E-1,-1.8260968E-1,4.373293E-1,-3.9910562E-2,-4.6879032E-1,5.590794E-1,7.818204E-1,-7.920885E-3,3.407218E-1,4.7758117E-1,4.2141378E-2,7.817358E-1,6.257205E-1,-2.551333E-2,-3.4325087E-1,6.035433E-1,7.802629E-2,3.616834E-1,-2.4713881E-1,-3.6854222E-1,-5.193726E-1,6.294602E-1,2.8528306E-1,7.193672E-1,7.9688424E-1,1.7862007E-1,-1.1208438E-1,4.4763225E-1,1.923684E-1,5.1838136E-1,2.9976505E-1,4.5045748E-1,-1.54152E-1,5.34919E-1,8.2634264E-1,6.504942E-1,2.5227162E-1,9.2164494E-2,-1.0039804E-1,-2.9460555E-1,-4.8352042E-1,7.277553E-1,3.8331047E-1,6.721199E-1,-2.0578761E-1,1.6428445E-1,7.117228E-1,-3.1469405E-2,-3.158482E-1,-3.9456797E-1,-1.14772454E-1,-3.926674E-1,-5.340756E-1,2.5865594E-1,1.7584601E-1,1.1047562E-1,2.9196838E-2,2.228242E-1,1.927688E-1,2.4288304E-1,2.1153595E-1,6.5940864E-2,-9.52837E-2,-5.2033342E-2,2.6268132E-2,1.1547866E-1,1.9547977E-1,1.7407583E-2,1.3954665E-1,1.1033834E-1,1.7238706E-1,1.14413895E-1,6.7699533E-3,-2.3237668E-2,2.0148335E-1,1.5521897E-1,-5.1765062E-2,8.032641E-2,1.8258803E-1,2.0118457E-1,2.593164E-1,2.0195149E-1,7.147043E-2,1.910793E-1,3.131893E-2,1.6581131E-2,1.2224052E-1,-4.4572882E-2,4.024558E-2,-8.001726E-2,-1.7617343E-1,-9.961043E-2,-1.516511E-1,1.5640734E-1,2.36881E-1,1.5780902E-1,3.977915E-2,9.546343E-2,2.5232193E-1,3.0513488E-2,-8.303384E-2,1.0857608E-1,-2.9093487E-2,2.4571432E-1,1.4743449E-1,-1.407784E-2,2.4875037E-1,-2.9674023E-2,-1.2110936E-1,-6.596424E-2,-1.2739326E-1,4.2237E-2,-8.559841E-2,-3.0182006E-2,-1.4814971E-1,-1.6347575E-1,-1.1330693E-1],"categories":[],"categories_nodes":[],"categories_segments":[],"categories_sizes":[],"default_left":[0,0,0,0,0,0,0,0,0,0,0,0,0,0,0,0,0,0,0,0,0,0,0,0,0,0,0,0,0,0,0,0,0,0,0,0,0,0,0,0,0,0,0,0,0,0,0,0,0,0,0,0,0,0,0,0,0,0,0,0,0,0,0,0,0,0,0,0,0,0,0,0,0,0,0,0,0,0,0,0,0,0,0,0,0,0,0,0,0,0,0,0,0,0,0,0,0,0,0,0,0,0,0,0,0,0,0,0,0,0,0,0,0,0,0,0,0,0,0,0,0,0,0,0,0,0,0],"id":11,"left_children":[1,3,5,7,9,11,13,15,17,19,21,23,25,27,29,31,33,35,37,39,41,43,45,47,49,51,53,55,57,59,61,63,65,67,69,71,73,75,77,79,81,83,85,87,89,91,93,95,97,99,101,103,105,107,109,111,113,115,117,119,121,123,125,-1,-1,-1,-1,-1,-1,-1,-1,-1,-1,-1,-1,-1,-1,-1,-1,-1,-1,-1,-1,-1,-1,-1,-1,-1,-1,-1,-1,-1,-1,-1,-1,-1,-1,-1,-1,-1,-1,-1,-1,-1,-1,-1,-1,-1,-1,-1,-1,-1,-1,-1,-1,-1,-1,-1,-1,-1,-1,-1,-1,-1,-1,-1,-1],"loss_changes":[3.174254E4,1.1718633E3,3.898777E3,7.541914E2,1.8374756E2,1.0241672E3,2.0490864E3,5.570664E2,7.546035E1,2.163711E2,1.7284058E1,9.194737E1,5.924729E2,1.3612859E3,1.7697119E2,2.5777686E2,6.535156E1,2.0967371E1,2.3155914E1,1.5372559E2,9.683038E1,1.8995605E1,1.1383728E1,1.6253086E1,1.215007E1,1.8528125E2,5.2943945E2,3.845957E2,1.5987585E2,7.736047E1,4.3044434E1,1.06813965E2,4.26819E1,2.3992676E1,6.534375E1,7.9718227E0,8.497052E0,1.0631699E1,2.2529177E1,1.4589111E2,8.960037E1,4.5841988E1,1.0171797E1,5.214386E0,8.268433E0,1.0776978E1,4.4433007E0,8.322426E0,1.2754794E1,1.0778145E1,1.3717651E0,5.493872E1,8.753323E1,6.0427917E1,4.641868E1,1.8392511E2,4.7052795E1,3.4732315E1,1.5590088E2,5.575354E1,4.7619526E1,7.1391754E1,3.5069824E1,0E0,0E0,0E0,0E0,0E0,0E0,0E0,0E0,0E0,0E0,0E0,0E0,0E0,0E0,0E0,0E0,0E0,0E0,0E0,0E0,0E0,0E0,0E0,0E0,0E0,0E0,0E0,0E0,0E0,0E0,0E0,0E0,0E0,0E0,0E0,0E0,0E0,0E0,0E0,0E0,0E0,0E0,0E0,0E0,0E0,0E0,0E0,0E0,0E0,0E0,0E0,0E0,0E0,0E0,0E0,0E0,0E0,0E0,0E0,0E0,0E0,0E0,0E0,0E0],"parents":[2147483647,0,0,1,1,2,2,3,3,4,4,5,5,6,6,7,7,8,8,9,9,10,10,11,11,12,12,13,13,14,14,15,15,16,16,17,17,18,18,19,19,20,20,21,21,22,22,23,23,24,24,25,25,26,26,27,27,28,28,29,29,30,30,31,31,32,32,33,33,34,34,35,35,36,36,37,37,38,38,39,39,40,40,41,41,42,42,43,43,44,44,45,45,46,46,47,47,48,48,49,49,50,50,51,51,52,52,53,53,54,54,55,55,56,56,57,57,58,58,59,59,60,60,61,61,62,62],"right_children":[2,4,6,8,10,12,14,16,18,20,22,24,26,28,30,32,34,36,38,40,42,44,46,48,50,52,54,56,58,60,62,64,66,68,70,72,74,76,78,80,82,84,86,88,90,92,94,96,98,100,102,104,106,108,110,112,114,116,118,120,122,124,126,-1,-1,-1,-1,-1,-1,-1,-1,-1,-1,-1,-1,-1,-1,-1,-1,-1,-1,-1,-1,-1,-1,-1,-1,-1,-1,-1,-1,-1,-1,-1,-1,-1,-1,-1,-1,-1,-1,-1,-1,-1,-1,-1,-1,-1,-1,-1,-1,-1,-1,-1,-1,-1,-1,-1,-1,-1,-1,-1,-1,-1,-1,-1,-1],"split_conditions":[1.10446036E-1,3.2194557E1,8.045352E1,9.245371E0,9.65857E-1,1.4385839E-1,-8.2808757E-1,1.4385839E-1,1.3273086E-1,1E0,8.705196E1,2.6152733E-1,6.4122574E1,1.5126613E2,2.2227384E-1,4.8619397E-2,2.1345481E-1,2.3249588E1,2.9586462E1,4.3926947E-2,5.921385E1,-6.876035E-1,5.101427E0,1.4530957E-1,6.900541E-1,-6.250933E-2,-8.9680034E-1,9.6017784E-1,2.3186497E-1,9.5650417E-1,-3.0263087E-1,-3.1871057E-1,2.2695928E0,8.768471E0,2.2695928E0,6.6842646E-3,-7.3367363E-1,2.3312886E-1,8.344091E1,4.8430464E-1,2.4462864E0,1.1901872E-1,-5.525311E-1,-8.315919E-1,9.7139484E-1,3.4279758E-1,-4.6147686E-1,8.3002186E-1,1.0536794E-1,3.766869E1,7.830729E-1,1.5744904E-1,3.927593E1,4.5922542E-1,-3.3258927E-1,-2.5059404E0,1.2718209E2,3.6380783E2,1.8190881E2,3.590506E-1,1.330769E2,1.3154753E2,1.9886918E-1,2.5865594E-1,1.7584601E-1,1.1047562E-1,2.9196838E-2,2.228242E-1,1.927688E-1,2.4288304E-1,2.1153595E-1,6.5940864E-2,-9.52837E-2,-5.2033342E-2,2.6268132E-2,1.1547866E-1,1.9547977E-1,1.7407583E-2,1.3954665E-1,1.1033834E-1,1.7238706E-1,1.14413895E-1,6.7699533E-3,-2.3237668E-2,2.0148335E-1,1.5521897E-1,-5.1765062E-2,8.032641E-2,1.8258803E-1,2.0118457E-1,2.593164E-1,2.0195149E-1,7.147043E-2,1.910793E-1,3.131893E-2,1.6581131E-2,1.2224052E-1,-4.4572882E-2,4.024558E-2,-8.001726E-2,-1.7617343E-1,-9.961043E-2,-1.516511E-1,1.5640734E-1,2.36881E-1,1.5780902E-1,3.977915E-2,9.546343E-2,2.5232193E-1,3.0513488E-2,-8.303384E-2,1.0857608E-1,-2.9093487E-2,2.4571432E-1,1.4743449E-1,-1.407784E-2,2.4875037E-1,-2.9674023E-2,-1.2110936E-1,-6.596424E-2,-1.2739326E-1,4.2237E-2,-8.559841E-2,-3.0182006E-2,-1.4814971E-1,-1.6347575E-1,-1.1330693E-1],"split_indices":[3,4,4,0,1,4,6,4,2,7,4,3,4,4,2,3,0,0,0,3,4,3,0,3,3,6,6,1,3,1,6,3,0,4,0,3,6,2,0,0,0,2,3,3,1,6,3,1,2,0,1,2,4,3,6,6,4,4,4,3,4,4,6,0,0,0,0,0,0,0,0,0,0,0,0,0,0,0,0,0,0,0,0,0,0,0,0,0,0,0,0,0,0,0,0,0,0,0,0,0,0,0,0,0,0,0,0,0,0,0,0,0,0,0,0,0,0,0,0,0,0,0,0,0,0,0,0],"split_type":[0,0,0,0,0,0,0,0,0,0,0,0,0,0,0,0,0,0,0,0,0,0,0,0,0,0,0,0,0,0,0,0,0,0,0,0,0,0,0,0,0,0,0,0,0,0,0,0,0,0,0,0,0,0,0,0,0,0,0,0,0,0,0,0,0,0,0,0,0,0,0,0,0,0,0,0,0,0,0,0,0,0,0,0,0,0,0,0,0,0,0,0,0,0,0,0,0,0,0,0,0,0,0,0,0,0,0,0,0,0,0,0,0,0,0,0,0,0,0,0,0,0,0,0,0,0,0],"sum_hessian":[1.7627956E5,1.11424305E5,6.485526E4,8.599676E4,2.5427541E4,1.3563263E4,5.1292E4,8.345531E4,2.5414502E3,2.2415857E4,3.0116829E3,3.642827E3,9.920437E3,1.6355285E4,3.4936715E4,1.3385395E4,7.0069914E4,1.0770511E3,1.464399E3,2.1209605E4,1.206252E3,1.7644985E3,1.2471842E3,1.84232E3,1.800507E3,6.78227E3,3.138166E3,5.566687E3,1.0788598E4,1.1719107E4,2.3217605E4,1.0647181E4,2.7382146E3,1.3626087E4,5.644383E4,3.8566647E2,6.913847E2,8.49902E2,6.144971E2,1.7249717E4,3.95989E3,3.912031E2,8.150488E2,2.720722E2,1.4924264E3,1.1689004E3,7.828388E1,7.1636115E2,1.1259587E3,1.3391809E3,4.6132608E2,4.3350073E3,2.4472627E3,1.0140782E3,2.124088E3,3.5603535E3,2.0063334E3,2.6070093E3,8.1815884E3,1.0628527E4,1.09058E3,2.4169473E3,2.080066E4,1.6674711E3,8.979709E3,1.8990021E3,8.392124E2,1.0439518E4,3.1865698E3,4.956265E4,6.8811816E3,3.566267E2,2.903974E1,5.289463E2,1.624384E2,6.522689E2,1.9763304E2,4.1254044E2,2.0195662E2,4.6926934E3,1.2557022E4,3.0588945E3,9.009954E2,1.15689705E2,2.755134E2,2.1010954E1,7.940379E2,5.983264E1,2.1223956E2,2.966803E2,1.1957461E3,1.1073546E3,6.154572E1,2.0819658E1,5.7464222E1,6.423718E2,7.398934E1,9.3439417E2,1.9156464E2,1.2244337E3,1.1474718E2,6.0503414E1,4.0082266E2,1.00167413E3,3.333333E3,1.5588071E3,8.884557E2,3.2861243E2,6.8546576E2,3.9832416E2,1.7257637E3,2.0267815E3,1.5335721E3,1.3472102E3,6.5912305E2,2.561943E3,4.5066082E1,2.3588357E3,5.822753E3,1.5623698E3,9.066158E3,4.365792E2,6.540008E2,6.223198E2,1.7946273E3,1.9449572E4,1.351086E3],"tree_param":{"num_deleted":"0","num_feature":"8","num_nodes":"127","size_leaf_vector":"1"}},{"base_weights":[-1.3006982E-1,2.2420857E-2,-2.086452E-1,-1.4137438E-1,1.391125E-1,-2.3484883E-1,2.0209654E-1,-1.9667879E-1,2.8638718E-1,2.2594835E-1,-2.4733528E-2,-2.7179122E-1,-1.00309715E-1,4.346924E-1,5.957176E-2,-2.3936087E-1,-9.157549E-2,1.0982861E-1,4.1953436E-1,6.768027E-2,3.2259184E-1,-6.783023E-2,2.1460089E-1,-2.4994858E-1,-4.9493366E-1,-4.8810177E-2,-3.291833E-1,5.666902E-1,3.5403833E-1,1.0259053E-1,-3.0729052E-1,-8.705071E-2,-2.5759906E-1,-1.5134095E-1,6.950608E-2,2.0116754E-1,-4.1631598E-2,5.1474196E-1,2.5097904E-1,-3.6614154E-2,2.005578E-1,4.0630147E-1,2.3197222E-1,-1.8423653E-1,1.4918067E-2,3.6658344E-1,1.4158174E-1,-1.659174E-1,-3.018652E-1,-5.890501E-2,-5.0639254E-1,4.234979E-2,-1.1921987E-1,-3.724878E-1,-1.3158648E-1,-1.11551456E-1,5.8616173E-1,8.6583346E-2,3.7813756E-1,-3.2608274E-3,1.800705E-1,-1.5372014E-1,-4.4855568E-1,-5.583023E-2,4.6722643E-2,-7.974692E-2,1.6232511E-2,-5.511885E-2,9.396067E-3,6.502247E-2,-1.6825566E-2,2.4385111E-2,1.0240232E-1,-6.630814E-2,1.9436538E-2,4.1532114E-2,1.6295676E-1,1.0488581E-1,3.2410752E-2,-4.057985E-2,1.7978342E-2,8.569892E-2,2.0425355E-2,9.234845E-2,1.4295913E-1,6.4632945E-2,2.109976E-1,7.957471E-3,-6.888814E-2,1.656893E-2,-7.122175E-2,4.6144128E-2,1.4824179E-1,2.9383058E-2,8.816066E-2,-6.9120415E-2,-3.5493445E-2,-9.628373E-2,-5.0482266E-2,-7.2400175E-2,7.602924E-2,-1.3330859E-1,-1.6416545E-1,1.983565E-2,-1.2921935E-1,-9.615953E-3,-5.4442868E-2,-5.3068202E-2,-1.2369452E-1,-9.0185803E-4,-7.1048714E-2,-1.7614816E-1,1.3547125E-1,1.2032415E-1,1.8428344E-1,5.6035317E-2,-1.487992E-1,1.2830494E-1,8.082965E-2,4.8753202E-2,-3.424097E-2,9.205904E-2,3.771035E-2,-7.244173E-2,7.339981E-2,-1.9616397E-2,-1.513132E-1],"categories":[],"categories_nodes":[],"categories_segments":[],"categories_sizes":[],"default_left":[0,0,0,0,0,0,0,0,0,0,0,0,0,0,0,0,0,0,0,0,0,0,0,0,0,0,0,0,0,0,0,0,0,0,0,0,0,0,0,0,0,0,0,0,0,0,0,0,0,0,0,0,0,0,0,0,0,0,0,0,0,0,0,0,0,0,0,0,0,0,0,0,0,0,0,0,0,0,0,0,0,0,0,0,0,0,0,0,0,0,0,0,0,0,0,0,0,0,0,0,0,0,0,0,0,0,0,0,0,0,0,0,0,0,0,0,0,0,0,0,0,0,0,0,0,0,0],"id":12,"left_children":[1,3,5,7,9,11,13,15,17,19,21,23,25,27,29,31,33,35,37,39,41,43,45,47,49,51,53,55,57,59,61,63,65,67,69,71,73,75,77,79,81,83,85,87,89,91,93,95,97,99,101,103,105,107,109,111,113,115,117,119,121,123,125,-1,-1,-1,-1,-1,-1,-1,-1,-1,-1,-1,-1,-1,-1,-1,-1,-1,-1,-1,-1,-1,-1,-1,-1,-1,-1,-1,-1,-1,-1,-1,-1,-1,-1,-1,-1,-1,-1,-1,-1,-1,-1,-1,-1,-1,-1,-1,-1,-1,-1,-1,-1,-1,-1,-1,-1,-1,-1,-1,-1,-1,-1,-1,-1],"loss_changes":[1.5401428E3,8.354886E2,9.1304224E2,4.3027554E2,3.631853E2,3.963003E2,1.6863336E2,7.2222046E1,4.890782E1,2.5517065E2,9.12274E1,3.048042E2,2.0248563E2,2.0376984E1,4.9836124E1,3.1791016E1,4.480259E1,1.241233E1,1.8916199E1,8.768415E1,7.848218E1,7.2193085E1,1.4925835E1,2.4855737E2,2.7834595E1,9.002978E1,2.6952362E1,9.724899E0,7.717514E0,2.3172125E1,7.1218834E0,2.951802E1,2.6231812E1,2.0084534E1,2.3307655E1,9.374184E0,6.4696007E0,8.033234E0,6.0299587E0,3.3774597E1,3.134793E1,3.7081726E1,3.8618652E1,2.9796722E1,4.4579853E1,1.1794025E1,6.040386E0,6.678528E1,8.972754E1,8.262789E0,1.3518066E1,6.876657E1,4.2939743E1,2.008551E1,7.696165E0,5.957126E0,3.4544525E0,5.9703155E0,5.8240356E0,2.198324E1,1.1207027E1,5.6643305E0,3.6486664E0,0E0,0E0,0E0,0E0,0E0,0E0,0E0,0E0,0E0,0E0,0E0,0E0,0E0,0E0,0E0,0E0,0E0,0E0,0E0,0E0,0E0,0E0,0E0,0E0,0E0,0E0,0E0,0E0,0E0,0E0,0E0,0E0,0E0,0E0,0E0,0E0,0E0,0E0,0E0,0E0,0E0,0E0,0E0,0E0,0E0,0E0,0E0,0E0,0E0,0E0,0E0,0E0,0E0,0E0,0E0,0E0,0E0,0E0,0E0,0E0,0E0,0E0,0E0,0E0],"parents":[2147483647,0,0,1,1,2,2,3,3,4,4,5,5,6,6,7,7,8,8,9,9,10,10,11,11,12,12,13,13,14,14,15,15,16,16,17,17,18,18,19,19,20,20,21,21,22,22,23,23,24,24,25,25,26,26,27,27,28,28,29,29,30,30,31,31,32,32,33,33,34,34,35,35,36,36,37,37,38,38,39,39,40,40,41,41,42,42,43,43,44,44,45,45,46,46,47,47,48,48,49,49,50,50,51,51,52,52,53,53,54,54,55,55,56,56,57,57,58,58,59,59,60,60,61,61,62,62],"right_children":[2,4,6,8,10,12,14,16,18,20,22,24,26,28,30,32,34,36,38,40,42,44,46,48,50,52,54,56,58,60,62,64,66,68,70,72,74,76,78,80,82,84,86,88,90,92,94,96,98,100,102,104,106,108,110,112,114,116,118,120,122,124,126,-1,-1,-1,